var pretrained = {"conv0.weight": [[[[-0.8217275738716125, 0.57761549949646, -1.327293872833252], [-1.5750378370285034, -0.20588916540145874, -0.9222593307495117], [0.8374242782592773, 2.4899566173553467, 1.2919601202011108]]], [[[-2.8710503578186035, -2.3536300659179688, -1.1950933933258057], [-2.071403741836548, -0.9245595932006836, 0.710159373397827], [1.3212440013885498, 2.77414608001709, 4.149641513824463]]], [[[-3.532080888748169, -0.2938849925994873, 3.9335505962371826], [-3.8990135192871094, -0.30892300605773926, 4.55255126953125], [-3.2719500064849854, 0.7575644850730896, 3.5082919597625732]]], [[[-2.3857743740081787, -0.9902257919311523, -0.6959231495857239], [1.0837721824645996, 2.8179373741149902, 2.0769646167755127], [-0.7512879967689514, -0.0652371495962143, -0.9467189908027649]]], [[[-0.40497297048568726, 1.88554048538208, 1.5692402124404907], [0.012341337278485298, 0.8343257904052734, 1.4322978258132935], [-1.6389204263687134, -1.9845837354660034, -1.4685033559799194]]], [[[-0.28548914194107056, 0.18402928113937378, -0.7385878562927246], [-0.29087477922439575, 0.6883381009101868, -0.09626754373311996], [0.11673974990844727, 1.2121684551239014, 0.19064491987228394]]], [[[2.3821682929992676, 2.9223897457122803, 1.4421184062957764], [-4.0903191566467285, -2.599599838256836, -4.097194194793701], [1.0385838747024536, 2.778914451599121, 1.4483563899993896]]], [[[1.4196287393569946, 1.9323235750198364, 1.0385304689407349], [2.004908323287964, 0.9092638492584229, 0.8890719413757324], [-0.8068774938583374, -3.279149055480957, -2.817917823791504]]], [[[2.404987096786499, 2.6404764652252197, 1.8515496253967285], [2.3573741912841797, 0.4958329200744629, -0.44930300116539], [-1.2393215894699097, -3.6506316661834717, -3.831543207168579]]], [[[2.5768356323242188, 0.2598065435886383, -2.8140766620635986], [3.243450164794922, -0.33732450008392334, -3.0697288513183594], [2.9533770084381104, -0.006674148607999086, -2.3184406757354736]]], [[[1.4425162076950073, -0.17762133479118347, -1.1921672821044922], [2.949174165725708, -0.8349239230155945, -2.4630825519561768], [3.326760768890381, -0.29346907138824463, -2.0620791912078857]]], [[[0.4566011130809784, 1.7466349601745605, 2.2143466472625732], [-2.162356376647949, -1.9961645603179932, -1.3349822759628296], [-0.07431259751319885, -0.4024886190891266, 0.8125195503234863]]], [[[1.6671396493911743, -0.09349995851516724, -1.7646818161010742], [3.0437405109405518, -0.7388367652893066, -2.673787832260132], [3.792053461074829, -0.20974403619766235, -2.209967613220215]]], [[[-1.2828364372253418, 0.7019045948982239, 0.962120532989502], [1.2143621444702148, 1.2675281763076782, 0.833540678024292], [0.12043318152427673, -1.6570769548416138, -1.9900823831558228]]], [[[-2.432030439376831, -1.6678217649459839, -0.8099464178085327], [-1.4536014795303345, -0.006643363740295172, 1.2983742952346802], [0.5498195886611938, 2.0291762351989746, 3.024031400680542]]], [[[0.050488024950027466, -1.015929937362671, -1.3016815185546875], [0.38811564445495605, 0.571182370185852, 0.13441182672977448], [-0.07647343724966049, 1.4580172300338745, 1.0544016361236572]]], [[[-3.1133718490600586, 0.8676897883415222, 0.9052256941795349], [-2.4165563583374023, 1.791150689125061, 0.8837788701057434], [-1.0953428745269775, 2.9080662727355957, 0.8109840750694275]]], [[[0.23242273926734924, 1.4451929330825806, 0.4363192915916443], [-0.789878785610199, -0.3355645537376404, -0.07063702493906021], [-0.6128441691398621, 0.0434107780456543, 0.12555044889450073]]], [[[-2.4360601902008057, -1.2545660734176636, -0.6030616164207458], [-0.6778097748756409, 0.3845325708389282, 1.6515522003173828], [-0.4774012565612793, 0.7202319502830505, 1.9576305150985718]]], [[[1.0723015069961548, 1.382765293121338, 1.8009998798370361], [-0.8723649382591248, -0.30515557527542114, 0.0056757559068500996], [-2.7867488861083984, -2.054230213165283, -1.8396368026733398]]], [[[1.1008635759353638, 2.007246971130371, 1.8895399570465088], [1.6911770105361938, 1.4665640592575073, 1.3894516229629517], [-1.9944337606430054, -3.042254686355591, -3.1308279037475586]]], [[[0.37798935174942017, 2.2714579105377197, 2.9243814945220947], [-1.220887303352356, 0.10221803933382034, 1.5703014135360718], [-2.8888015747070312, -2.7409300804138184, -0.475388765335083]]], [[[0.684651792049408, 2.708908796310425, 0.2574974000453949], [-2.5548107624053955, -0.8781651854515076, -2.917752504348755], [-0.00046127600944601, 2.790684700012207, 0.8219162821769714]]], [[[2.141191005706787, 3.130833387374878, 2.478203058242798], [1.1570879220962524, 0.9942079186439514, 1.2234874963760376], [-2.0612499713897705, -2.8223042488098145, -2.5263516902923584]]], [[[-3.7796828746795654, -0.6942899227142334, 4.046191692352295], [-4.298089027404785, 0.17472033202648163, 5.005946636199951], [-2.756632089614868, 1.603514552116394, 3.2655868530273438]]], [[[-0.8362680673599243, -3.2122223377227783, -2.826753616333008], [0.6585407257080078, -0.77762371301651, -0.9104750752449036], [3.4372870922088623, 2.9248695373535156, 3.001701831817627]]], [[[0.8126124143600464, 0.07723674178123474, -0.41618040204048157], [1.0226740837097168, 1.786258578300476, 1.4967011213302612], [1.663445234298706, 2.9134440422058105, 2.520610809326172]]], [[[1.083862543106079, 1.9551990032196045, 0.9493353962898254], [-2.2111282348632812, -1.7149831056594849, -2.1031453609466553], [0.27895587682724, 1.4696801900863647, 1.0719077587127686]]], [[[-0.09729652106761932, 1.2106035947799683, -0.7403712272644043], [-0.641258716583252, 1.0206215381622314, 1.1948144435882568], [-1.2418712377548218, -0.04587890952825546, 0.21149669587612152]]], [[[0.11526530981063843, -0.06859742105007172, -1.0204298496246338], [1.2640905380249023, 1.519631028175354, 1.2435100078582764], [-1.2081609964370728, -0.5746698379516602, 0.22304575145244598]]], [[[0.6604773998260498, -2.2326908111572266, -2.726386308670044], [0.617655873298645, -2.0943644046783447, -2.2123727798461914], [3.0090267658233643, 0.20776447653770447, 0.12842032313346863]]], [[[-0.08001472055912018, -1.9350132942199707, -3.1108462810516357], [1.0950876474380493, 0.9076181650161743, -1.1103979349136353], [2.624542236328125, 3.2263946533203125, 1.935997486114502]]], [[[-2.7159194946289062, -3.3916807174682617, -2.8282532691955566], [0.2498335838317871, -0.1946040242910385, 0.3556922674179077], [2.495357036590576, 2.5672786235809326, 3.5966453552246094]]], [[[-2.434281826019287, 1.8775726556777954, -0.15602147579193115], [-2.0653481483459473, 2.417829751968384, -0.6320433616638184], [-0.6489500403404236, 2.907867193222046, -1.2078801393508911]]], [[[0.8653237223625183, 0.825555145740509, -0.0179594699293375], [1.436644434928894, 1.8696118593215942, 1.473862648010254], [1.8136905431747437, 2.5559275150299072, 2.6124138832092285]]], [[[1.3020381927490234, 0.040824711322784424, 0.8714665174484253], [1.7431000471115112, 0.06779628247022629, 0.7563260793685913], [-0.8502956032752991, -2.8043696880340576, -1.6022266149520874]]], [[[0.7873334884643555, 1.0329430103302002, -0.27332520484924316], [1.425649642944336, 1.867600679397583, 1.573473572731018], [-1.8921736478805542, -2.0752995014190674, -0.6222625374794006]]], [[[-0.15258479118347168, -0.5768084526062012, -1.7037113904953003], [1.4835985898971558, 1.8696348667144775, 0.4306904971599579], [-1.1843302249908447, -0.8597509860992432, -0.6526457667350769]]], [[[1.731994867324829, 1.864357829093933, -0.5450805425643921], [2.5830366611480713, 1.2394375801086426, -0.07832857966423035], [-0.9788303971290588, -2.359919548034668, -2.3087735176086426]]], [[[1.9899532794952393, -0.382186621427536, -1.3834141492843628], [2.615177869796753, -0.2635143995285034, -2.086679220199585], [1.9726113080978394, -0.6798055171966553, -0.7653817534446716]]], [[[-1.3928723335266113, -3.4652299880981445, -2.881495714187622], [1.9921793937683105, 0.11655844748020172, 0.4455927908420563], [2.4551384449005127, 0.4787673056125641, 0.30610716342926025]]], [[[-0.1723911166191101, 0.5289115905761719, 1.0524637699127197], [-2.885734796524048, -1.8605585098266602, -1.3734915256500244], [-0.378968745470047, 0.9700321555137634, 2.055623769760132]]], [[[-0.13957273960113525, 1.0128750801086426, -0.8439406156539917], [-1.0554418563842773, 1.2418159246444702, 0.5172173380851746], [-0.9221813082695007, 1.2234909534454346, 0.26421675086021423]]], [[[-0.06093493849039078, 2.0040900707244873, 2.6853151321411133], [-1.7591631412506104, -0.30005478858947754, 1.2835776805877686], [-2.747229814529419, -2.121417999267578, 0.593154788017273]]], [[[1.966715931892395, -0.27993595600128174, -2.4172310829162598], [2.8044700622558594, -0.10011032968759537, -2.993964910507202], [2.3376412391662598, 0.8702634572982788, -1.5785961151123047]]]], "bn1.running_mean": [31.903093338012695, 46.377254486083984, 41.526241302490234, 190.1633758544922, 5.605193857299268e-45, 14.426263809204102, 5.605193857299268e-45, 5.605193857299268e-45, 5.605193857299268e-45, 143.45469665527344, 5.605193857299268e-45, 5.605193857299268e-45, 10.759455680847168, 1.7416267395019531, 33.83485412597656, 22.754907608032227, 14.868000984191895, 5.605193857299268e-45, 66.63148498535156, 46.11366653442383, 59.95612716674805, 5.605193857299268e-45, 5.605193857299268e-45, 5.605193857299268e-45, 2.3435232639312744, 5.605193857299268e-45, 6.985930442810059, 5.605193857299268e-45, 18.67899513244629, 17.160213470458984, 16.598133087158203, 16.257843017578125, 5.605193857299268e-45, 5.605193857299268e-45, 60.62125015258789, 5.605193857299268e-45, 24.78379249572754, 12.02321720123291, 5.605193857299268e-45, 9.510055541992188, 44.18570327758789, 20.840654373168945, 7.622796535491943, 5.605193857299268e-45, 5.605193857299268e-45], "bn1.running_var": [3927.16162109375, 16169.767578125, 5229.30859375, 29306.55078125, 5.605193857299268e-45, 2085.638916015625, 5.605193857299268e-45, 5.605193857299268e-45, 5.605193857299268e-45, 21324.560546875, 5.605193857299268e-45, 5.605193857299268e-45, 3427.24169921875, 204.13356018066406, 5853.96826171875, 5095.1181640625, 2408.443359375, 5.605193857299268e-45, 13096.7080078125, 4799.876953125, 13529.54296875, 5.605193857299268e-45, 5.605193857299268e-45, 5.605193857299268e-45, 281.30731201171875, 5.605193857299268e-45, 915.1162719726562, 5.605193857299268e-45, 3478.197998046875, 1906.0543212890625, 4256.04150390625, 1890.88427734375, 5.605193857299268e-45, 5.605193857299268e-45, 11985.6728515625, 5.605193857299268e-45, 4825.6005859375, 1488.1512451171875, 5.605193857299268e-45, 2033.5843505859375, 6894.54443359375, 3879.658203125, 1263.19580078125, 5.605193857299268e-45, 5.605193857299268e-45], "bn1.num_batches_tracked": 78624, "conv1.weight": [[[[-0.7353600859642029, 1.2449506521224976, -0.07838257402181625], [-1.7278937101364136, 0.5510098934173584, 1.0522854328155518], [1.9106065034866333, 1.7490575313568115, -1.1239606142044067]], [[0.3679421842098236, 2.0487451553344727, 1.158007264137268], [-1.0100295543670654, 2.2454168796539307, 3.0275049209594727], [2.595663070678711, 3.5139379501342773, 0.17059224843978882]], [[-1.5525460243225098, -2.4229636192321777, -0.1537177860736847], [-0.7828311324119568, 1.7780674695968628, 0.5236868262290955], [-0.5944427847862244, 2.552748203277588, 0.5316202044487]], [[3.7387564182281494, 3.5840797424316406, 1.3435829877853394], [-1.7364083528518677, -1.0279815196990967, -0.3257862627506256], [0.1213778704404831, 0.1695760041475296, -3.000225782394409]], [[1.1595717668533325, -0.25891393423080444, -1.7232799530029297], [1.7928253412246704, -1.50206458568573, -4.946863651275635], [-1.2637770175933838, -1.5757640600204468, 1.4045157432556152]], [[0.24678924679756165, 0.6769796013832092, -1.775739073753357], [-3.8365843296051025, -1.7221405506134033, 0.8820725679397583], [-2.037472724914551, -0.5762176513671875, 0.1942390352487564]], [[4.449071884155273, 4.484816551208496, 1.2246454954147339], [2.7044379711151123, -1.9840370416641235, -7.453914642333984], [3.2607483863830566, -0.32562533020973206, -3.8214833736419678]], [[0.8705422282218933, 0.36908257007598877, -3.021409273147583], [1.8323322534561157, -2.2669081687927246, -5.76367712020874], [0.20471079647541046, -0.5101836919784546, 1.8811320066452026]], [[0.037966951727867126, -0.2982003092765808, -3.197939157485962], [2.0540056228637695, -3.5249135494232178, -6.520106315612793], [-0.26674333214759827, -1.1026406288146973, 1.8750802278518677]], [[-0.7558653354644775, 1.9760308265686035, -2.5758514404296875], [-1.977097988128662, 1.0458731651306152, 0.8022586703300476], [-1.7915042638778687, -0.237982839345932, 1.505454182624817]], [[0.6131304502487183, 2.6995229721069336, -1.9656734466552734], [-1.3851791620254517, 0.8586782217025757, 0.7339890003204346], [-1.8107844591140747, -0.537438154220581, 1.4430118799209595]], [[1.0714753866195679, 0.41176751255989075, 0.9431065320968628], [2.74114727973938, -1.1752848625183105, -3.51539945602417], [-0.27168071269989014, -2.2346324920654297, -0.22279371321201324]], [[0.14432668685913086, 2.2692997455596924, -2.709622383117676], [-1.7433769702911377, 0.8204811811447144, 0.8379325866699219], [-2.343320846557617, -0.8228924870491028, 0.8739349246025085]], [[2.8820512294769287, 1.6338483095169067, -1.7545615434646606], [1.0872913599014282, -2.074164628982544, -5.335587978363037], [-0.14164526760578156, -0.5930326581001282, 1.9056532382965088]], [[0.4769659638404846, 1.7075021266937256, 1.0705467462539673], [-1.1455098390579224, 2.036473274230957, 2.1881940364837646], [2.255730152130127, 2.911126136779785, -1.1042770147323608]], [[0.46948519349098206, 1.1573792695999146, -1.9020625352859497], [-3.5698137283325195, -1.3800417184829712, 1.0626215934753418], [-2.045419216156006, -1.0350086688995361, -0.14859142899513245]], [[-0.5705855488777161, -1.603346586227417, -0.15916593372821808], [-2.0332300662994385, 0.5540496706962585, 1.5470398664474487], [-0.44722798466682434, 2.4294192790985107, -0.30390557646751404]], [[-0.4133263826370239, -0.20830215513706207, -1.351180076599121], [1.3083199262619019, -0.18038344383239746, -3.555128574371338], [-0.7391734719276428, -1.82297682762146, -0.2685030400753021]], [[-0.8637514710426331, 0.6133319735527039, 0.7381787300109863], [-1.4589807987213135, 1.0431894063949585, 0.34045639634132385], [1.8650811910629272, 1.263197422027588, -2.361440658569336]], [[0.006444228813052177, -0.22578342258930206, -0.4447026550769806], [1.160365104675293, -1.6812442541122437, -2.874389410018921], [0.3189575672149658, -2.0457112789154053, -0.9514934420585632]], [[0.9678595066070557, 0.31866559386253357, -2.2985827922821045], [1.0196709632873535, -3.1935319900512695, -7.65372896194458], [-1.0315001010894775, -1.247127652168274, 1.5856895446777344]], [[0.09840015321969986, -0.8824087381362915, -0.8672680258750916], [2.6258580684661865, -1.3087323904037476, -5.103391170501709], [-1.5240466594696045, -2.1588516235351562, 0.7732877135276794]], [[1.232958436012268, 1.5827958583831787, 0.32475656270980835], [1.5469813346862793, -0.6978098750114441, -3.0931456089019775], [2.5469491481781006, -0.22891061007976532, -1.892575979232788]], [[0.12071607261896133, -0.319875568151474, -3.5589945316314697], [1.7019071578979492, -0.9037842154502869, -7.283437728881836], [-1.168209433555603, -0.9654467105865479, 1.770875334739685]], [[-2.012263536453247, -2.759816884994507, -0.5807056427001953], [-1.1352614164352417, 1.766873836517334, 0.6376612782478333], [-0.4956548511981964, 2.990326166152954, 0.20489953458309174]], [[1.0413689613342285, 2.8787460327148438, 0.0552358515560627], [-1.452269434928894, 0.8957540988922119, 2.4816441535949707], [0.8801121115684509, 0.4101506769657135, 0.13603806495666504]], [[2.4225621223449707, 1.470137119293213, -2.169502019882202], [-5.595146656036377, -1.4193016290664673, 0.13019169867038727], [-3.428338050842285, -0.4074500799179077, 1.6786881685256958]], [[1.956141710281372, 2.5734035968780518, 0.17738935351371765], [1.8892605304718018, -0.8361825346946716, -5.460848808288574], [0.9664820432662964, -1.0833799839019775, -2.8464982509613037]], [[1.3270657062530518, 0.3038923740386963, 0.5466472506523132], [0.6638218760490417, 0.14582379162311554, -2.610795497894287], [-1.2171434164047241, -1.0432332754135132, 0.611229419708252]], [[4.061400413513184, 3.2646307945251465, 0.0947209969162941], [-1.2578152418136597, -0.978270947933197, -3.3136632442474365], [-0.9467236399650574, -1.0356216430664062, -0.4244493842124939]], [[0.7405710220336914, 2.4718921184539795, 1.1890796422958374], [0.7063377499580383, 0.006222621072083712, -0.5459721684455872], [2.028184652328491, -1.0286850929260254, -1.4697424173355103]], [[0.02836638130247593, 1.229772686958313, -3.724231719970703], [-3.976445436477661, -1.5538657903671265, 0.6934664249420166], [-2.4855103492736816, -1.6750484704971313, -0.4110974073410034]], [[0.9142183065414429, 2.936636447906494, 1.063340663909912], [-1.3102635145187378, 1.7365024089813232, 2.7992258071899414], [1.878909707069397, 2.125391960144043, -0.3449585437774658]], [[-0.07667409628629684, 0.44073542952537537, 0.08410106599330902], [-1.7645245790481567, 0.8996805548667908, 1.9445668458938599], [0.020139183849096298, 3.167884349822998, 0.870063304901123]], [[2.428291082382202, 1.3673152923583984, -2.0489084720611572], [-5.369419574737549, -1.3803578615188599, 0.07296177744865417], [-3.543609380722046, -0.4436781108379364, 1.6921409368515015]], [[0.9520891904830933, 0.7482746243476868, -1.5531399250030518], [1.4945791959762573, -1.872714638710022, -3.985825777053833], [0.212434321641922, -1.567042589187622, 0.88446444272995]], [[2.6814160346984863, 2.6765153408050537, -0.023384172469377518], [-1.3483139276504517, -0.5210851430892944, -4.811020374298096], [-1.6485885381698608, -0.7198941111564636, 1.8908039331436157]], [[5.456144332885742, 4.579986572265625, -0.8428328633308411], [-0.7539565563201904, -0.7626927495002747, -2.8648934364318848], [-0.6458678841590881, -1.0977308750152588, -0.7831553220748901]], [[1.332412838935852, 0.48793357610702515, -4.655955791473389], [0.16412872076034546, -0.9934524893760681, -4.764400482177734], [-0.19367213547229767, 0.22640082240104675, 1.6499402523040771]], [[0.8795050978660583, 2.5058460235595703, -2.20943284034729], [-1.6266918182373047, 0.5437487959861755, 0.12341275066137314], [-2.043029546737671, -0.605239748954773, 0.8831448554992676]], [[1.0450338125228882, 3.518998622894287, 1.2507630586624146], [-0.4040738046169281, 1.0972325801849365, 0.5360862612724304], [1.8277188539505005, -0.6236855387687683, -2.644371509552002]], [[0.022399457171559334, 1.0740257501602173, 1.706757664680481], [0.629317581653595, 0.4978577494621277, -1.1426814794540405], [2.2693684101104736, 0.19568084180355072, -1.9239681959152222]], [[0.07883547991514206, -0.09492329508066177, -0.33544492721557617], [-2.1433475017547607, 0.11514251679182053, -0.8766924738883972], [-1.7210986614227295, 0.09640824049711227, -0.3860386610031128]], [[0.5101748704910278, -1.7120376825332642, -1.2527289390563965], [3.1376326084136963, -0.20989659428596497, -4.6359171867370605], [-0.9005174040794373, -1.6165200471878052, 0.29955872893333435]], [[-0.45754897594451904, 2.180720329284668, -2.636456251144409], [-1.6681476831436157, 0.6952232122421265, 0.7224553227424622], [-1.0041760206222534, -0.479208767414093, 0.974059522151947]]], [[[-3.3166301250457764, -2.55703067779541, 0.6101579666137695], [-0.8248737454414368, 0.8368421196937561, 3.1463277339935303], [0.09864013642072678, -0.07519899308681488, 0.31774836778640747]], [[-3.170436143875122, -2.178072214126587, -0.17573235929012299], [-1.997723937034607, -0.40089476108551025, 1.115836501121521], [-0.9221672415733337, -3.0784294605255127, -3.963740348815918]], [[1.5794507265090942, -1.6181304454803467, -5.88374662399292], [1.3115333318710327, -0.9640926718711853, -6.877904891967773], [0.5754600763320923, 1.048788070678711, -4.397441387176514]], [[-2.61354398727417, -2.6300885677337646, 0.08508764207363129], [0.30395033955574036, 0.12888117134571075, 1.3986129760742188], [1.3973729610443115, 0.5571251511573792, 0.8529051542282104]], [[-0.43944263458251953, -1.95587956905365, -1.4626203775405884], [3.129509449005127, 1.2549917697906494, -0.5360600352287292], [0.24233217537403107, 0.9163293838500977, -0.2313362956047058]], [[-1.1868782043457031, -2.8262312412261963, -0.8868266344070435], [-0.9669055938720703, -1.702071189880371, -0.4682216942310333], [-2.4744796752929688, -1.655565857887268, -0.19760330021381378]], [[-1.9493045806884766, -2.4634289741516113, -0.6184832453727722], [5.3613667488098145, 5.488744258880615, 5.78383731842041], [0.1763400435447693, 0.36173930764198303, 0.09791965037584305]], [[-0.0011565220775082707, -1.2673529386520386, -1.1372662782669067], [4.392313003540039, 2.7060275077819824, 0.9622770547866821], [1.0071580410003662, 1.4036321640014648, 0.2007559835910797]], [[0.3714156448841095, -0.7267727851867676, -1.1815903186798096], [4.93914794921875, 2.909057855606079, 0.7963070273399353], [1.2323521375656128, 1.5164426565170288, 0.11057815700769424]], [[1.7443463802337646, 1.88681960105896, 1.0279611349105835], [0.561183750629425, 0.7861371636390686, 0.2013203352689743], [0.586062490940094, 0.17462436854839325, 0.553290069103241]], [[1.7554410696029663, 1.0465220212936401, 0.6669862270355225], [1.1096879243850708, 0.11542605608701706, -0.021981138736009598], [0.9522969722747803, -0.08283153921365738, 0.35091927647590637]], [[-1.3999882936477661, -2.3509881496429443, -0.8346552848815918], [3.3933773040771484, 2.444322347640991, 1.8301494121551514], [0.3112606704235077, 0.561705470085144, 0.29575738310813904]], [[1.9691723585128784, 1.2783561944961548, 0.8407511115074158], [1.1626660823822021, 0.7141278386116028, 0.6795459389686584], [0.9852039217948914, 0.13388167321681976, 0.7037786245346069]], [[0.04580600932240486, -1.0286128520965576, -1.2245408296585083], [4.2207536697387695, 2.4368815422058105, 0.9355866312980652], [0.6985793709754944, 1.408442735671997, 1.0143752098083496]], [[-3.324368953704834, -2.21122407913208, 0.3264507055282593], [-2.5505807399749756, -1.0397297143936157, 0.9821893572807312], [0.021543174982070923, -1.5703001022338867, -1.5387933254241943]], [[-1.1045324802398682, -2.820624351501465, -0.26097020506858826], [-0.4783514142036438, -1.3514394760131836, 0.05102582275867462], [-1.3891452550888062, -2.60994029045105, -0.47729212045669556]], [[-0.585979700088501, -1.3168120384216309, -2.675175666809082], [-1.4029560089111328, -0.9813559055328369, -1.5759550333023071], [-1.6646499633789062, 0.29448363184928894, -1.4716484546661377]], [[-0.6102376580238342, -1.406213402748108, -1.2500388622283936], [2.4281013011932373, 2.1510541439056396, 0.5207601189613342], [-0.5513216853141785, 1.360984444618225, 0.963464081287384]], [[-3.6045663356781006, -2.314736843109131, -0.005168610718101263], [-2.124398946762085, -1.0505129098892212, 1.2543001174926758], [1.026034951210022, 0.4992631673812866, 0.5541536808013916]], [[-3.6066854000091553, -1.4254236221313477, 0.635152280330658], [0.3577936589717865, 1.5018699169158936, 2.0769479274749756], [-0.5489926934242249, 1.6342408657073975, 2.449876308441162]], [[-0.12255250662565231, -2.3300106525421143, -2.351836919784546], [4.920825958251953, 2.391343116760254, 0.6674146056175232], [1.954757571220398, 1.4023367166519165, 0.39604857563972473]], [[-0.4281437397003174, -2.546765089035034, -1.7368645668029785], [3.97591495513916, 1.436073899269104, -0.3461548388004303], [0.07062400132417679, 0.2983824908733368, -1.4697299003601074]], [[-1.8691259622573853, -2.2857308387756348, 0.7652941346168518], [2.744243860244751, 3.112990617752075, 4.734882354736328], [-0.8625641465187073, -0.5466282367706299, 0.0701085776090622]], [[0.8147129416465759, -1.7103188037872314, -1.6088029146194458], [4.200830459594727, 1.5710827112197876, -0.13998575508594513], [0.6422412395477295, 0.9621962308883667, 0.4851568341255188]], [[1.1584208011627197, -1.8532871007919312, -6.1136794090271], [1.0729113817214966, -1.206282377243042, -6.982642650604248], [0.1975310742855072, 0.5395346879959106, -5.394025802612305]], [[-2.615910768508911, -2.8797054290771484, 0.6283619403839111], [-1.3172130584716797, -0.8006435632705688, 1.0105900764465332], [-0.055723823606967926, -3.015644073486328, -3.0523762702941895]], [[0.09551649540662766, -2.107992172241211, -1.8206872940063477], [0.5601853132247925, -0.5233787894248962, -0.46443602442741394], [-2.6737663745880127, -2.4822845458984375, -0.24224478006362915]], [[-1.161557912826538, -1.3432016372680664, -0.20023727416992188], [2.913024425506592, 3.3781933784484863, 3.1008732318878174], [-0.6790222525596619, 0.47891074419021606, -0.6240082383155823]], [[-0.407683402299881, -2.2690842151641846, -1.7009823322296143], [1.9492005109786987, 0.6587627530097961, -0.8257559537887573], [-0.28578510880470276, 1.5981009006500244, 0.6736866235733032]], [[-1.1398102045059204, -1.854245901107788, -1.670880913734436], [1.1058130264282227, -0.21751058101654053, -1.5422147512435913], [-0.6010040640830994, 1.117142677307129, 0.7431573271751404]], [[-5.625153541564941, -1.075836420059204, 1.243461012840271], [-3.154047727584839, 0.6957564949989319, 2.0649948120117188], [-1.3327159881591797, 1.2050285339355469, 1.894936442375183]], [[-0.05028872564435005, -3.104098320007324, -1.0667110681533813], [0.2280806452035904, -1.603952407836914, -0.5607216954231262], [-1.3115556240081787, -4.101024627685547, -2.1124236583709717]], [[-4.18253231048584, -3.411856174468994, -0.07666592299938202], [-1.6235957145690918, -0.7055541276931763, 0.9370917677879333], [0.10251857340335846, -3.428527355194092, -4.182797908782959]], [[0.04355207830667496, -1.611595630645752, -0.18205401301383972], [-0.1620979607105255, -0.5090020895004272, 0.6259394884109497], [-0.6305776238441467, 0.5046162605285645, 0.5646398663520813]], [[0.2310040444135666, -2.0672740936279297, -1.9436264038085938], [0.6886340975761414, -0.3733155429363251, -0.4675922691822052], [-2.6125295162200928, -2.39858341217041, -0.2937314808368683]], [[-1.4023289680480957, -2.0163943767547607, -1.6084980964660645], [3.154630422592163, 1.9825841188430786, 0.29585662484169006], [0.7019090056419373, 1.7435710430145264, 0.24664516746997833]], [[0.5667195916175842, -1.7348425388336182, -1.325080394744873], [3.566962718963623, 1.8402142524719238, -0.12362474948167801], [0.7530839443206787, 2.0622799396514893, 1.2530449628829956]], [[-0.2739838659763336, -1.6958383321762085, -0.4031350910663605], [1.6689056158065796, 0.2993455231189728, 0.3140309154987335], [-0.2379859983921051, 0.8591261506080627, 2.199411392211914]], [[1.5505118370056152, 0.24382829666137695, -0.305255264043808], [3.317012310028076, 2.166290521621704, 0.9478008151054382], [0.9543635249137878, 1.6086069345474243, 1.4024145603179932]], [[1.4452226161956787, 1.023180365562439, 0.4986753761768341], [0.8984279036521912, 0.36362263560295105, -0.24683845043182373], [0.43954500555992126, 0.04587772488594055, 0.04416802525520325]], [[-6.164785385131836, -2.1936073303222656, 1.0965020656585693], [-3.1322004795074463, 0.2721492350101471, 2.168325901031494], [0.4621298015117645, 1.3786598443984985, 1.6647114753723145]], [[-2.4838778972625732, -2.297680139541626, 0.43190839886665344], [1.3129011392593384, 1.5147720575332642, 2.6138546466827393], [0.7245934009552002, 0.5936739444732666, 0.5470491647720337]], [[-0.4599339962005615, -1.2779048681259155, -1.8203816413879395], [-0.3931995630264282, 0.2589968144893646, -0.6626468896865845], [-0.9313923120498657, 1.7955412864685059, 0.23465169966220856]], [[-0.4605623781681061, -2.7384719848632812, -1.420201301574707], [3.3195831775665283, 1.5579558610916138, 0.3394804000854492], [-0.13117139041423798, 0.7621613144874573, -0.582136869430542]], [[1.4697520732879639, 1.82322096824646, 1.3726317882537842], [0.5603776574134827, 0.8601865768432617, 0.6926262378692627], [0.5679979920387268, 0.013695605099201202, 0.4847590923309326]]], [[[0.50757896900177, -0.36942142248153687, 1.8802461624145508], [0.31633955240249634, -0.8902164101600647, -1.5396345853805542], [0.6805359125137329, 1.2055941820144653, -0.12163615971803665]], [[-0.15781641006469727, 0.1586027890443802, 2.6749539375305176], [0.6616342663764954, -0.9528058171272278, -1.1474864482879639], [1.5383002758026123, 2.1894819736480713, 0.028748992830514908]], [[-5.889003753662109, -0.22352291643619537, -2.422043561935425], [-3.8286702632904053, -1.608453392982483, 2.2752525806427], [-2.434502124786377, -2.0736687183380127, -0.43256184458732605]], [[2.4471449851989746, 2.9193341732025146, 2.625962734222412], [0.657270073890686, -1.186794400215149, -0.8691540956497192], [0.5460657477378845, 0.14189903438091278, -0.4888284206390381]], [[0.8723207712173462, 2.6872642040252686, -2.168430805206299], [-0.15018713474273682, -1.0779993534088135, 0.581831693649292], [0.07942557334899902, -2.232110023498535, 0.5185291767120361]], [[-1.3504222631454468, -0.9990208148956299, 0.1049036756157875], [1.4854081869125366, 0.6400862336158752, 2.034625768661499], [0.03549319505691528, -1.3682639598846436, -0.6969544887542725]], [[2.353367567062378, 1.6324036121368408, -2.010042905807495], [1.7929681539535522, 0.2475837618112564, -4.381555557250977], [4.707507133483887, 2.5441982746124268, 0.3170351982116699]], [[2.3309662342071533, 2.1977627277374268, -4.507261276245117], [1.0140929222106934, -0.5889875292778015, -1.779896855354309], [0.16820436716079712, -0.25208523869514465, 1.3122478723526]], [[1.9275269508361816, 1.2325751781463623, -5.363691806793213], [0.32070350646972656, -1.409227967262268, -2.4310271739959717], [0.016302883625030518, -0.3821243643760681, 2.007124900817871]], [[-1.0017577409744263, -5.632147312164307, 0.6475570201873779], [-0.663139283657074, -3.5465147495269775, -0.960506021976471], [-1.3355437517166138, -1.8548887968063354, -0.5876153111457825]], [[-1.4722799062728882, -5.770831108093262, 0.8404841423034668], [-0.6493947505950928, -2.2928154468536377, -0.2523392140865326], [-1.5017991065979004, -0.9513329863548279, 0.1497317999601364]], [[1.7904516458511353, 1.993502140045166, -1.6452000141143799], [0.24380454421043396, -1.6894007921218872, -2.2509117126464844], [1.6279045343399048, -1.077524185180664, 0.469574898481369]], [[-1.681358814239502, -5.476041793823242, 1.9268392324447632], [-0.5472622513771057, -1.9248672723770142, 0.25112923979759216], [-2.246028423309326, -1.7645288705825806, -0.5154399871826172]], [[0.7295616269111633, 1.717452883720398, -2.663444995880127], [0.4970460534095764, -0.6518513560295105, 1.187851071357727], [0.9859192371368408, -0.9540374279022217, 1.7153011560440063]], [[-0.18866677582263947, 0.413390189409256, 2.152398109436035], [-0.37904343008995056, -1.3046971559524536, -1.68269681930542], [1.353356122970581, 2.172985076904297, -0.4825054407119751]], [[-0.4695209264755249, -1.112276315689087, 1.8915479183197021], [1.9851754903793335, 0.6426060795783997, 2.033944606781006], [-0.9859890937805176, -1.440633773803711, -0.6354451179504395]], [[-2.588063955307007, 1.0519506931304932, -1.8415498733520508], [-0.39421531558036804, -0.23337577283382416, 1.6835498809814453], [-0.2786194384098053, -1.138131856918335, -0.8059198260307312]], [[-0.6808996796607971, 1.2106624841690063, -1.9208518266677856], [-0.49816635251045227, -1.1029484272003174, -0.26052287220954895], [0.9778806567192078, -1.022678256034851, -0.03967447951436043]], [[-0.481385737657547, 0.1560644656419754, 0.3870241045951843], [-0.5698318481445312, -1.2603930234909058, -2.8667359352111816], [1.6452234983444214, 1.7700458765029907, -2.029604434967041]], [[1.6619809865951538, 0.6481003165245056, -2.8644638061523438], [3.9550766944885254, 1.8988603353500366, -2.1316022872924805], [3.683208703994751, 1.321426272392273, -1.6904547214508057]], [[1.2711987495422363, 2.2546024322509766, -2.549546957015991], [0.15419526398181915, -1.2164671421051025, 0.4396720826625824], [0.08232646435499191, -1.2250908613204956, 2.472907304763794]], [[1.4709645509719849, 2.717078685760498, -2.2200019359588623], [0.3017085790634155, -0.6807953119277954, -0.7959760427474976], [-0.06609421968460083, -2.129441976547241, -0.0044305166229605675]], [[1.8511500358581543, 1.2789306640625, -1.4563076496124268], [1.6293094158172607, -0.5395572781562805, -3.45271635055542], [3.181748628616333, 0.3115162253379822, -1.3542851209640503]], [[-0.7562828660011292, 0.8704836964607239, -2.6842756271362305], [-0.3041642904281616, -1.1720025539398193, 1.0853346586227417], [0.47521695494651794, -1.722254753112793, 1.015074372291565]], [[-6.25580358505249, -0.19188469648361206, -2.924582004547119], [-3.8047430515289307, -1.4893697500228882, 1.8875603675842285], [-2.770744800567627, -1.8598034381866455, -0.5069935917854309]], [[1.6003822088241577, -0.7277995347976685, 6.13309907913208], [1.3570009469985962, -0.48903408646583557, 0.1244015172123909], [0.08299814909696579, 0.6527532339096069, -0.2725856602191925]], [[-2.354661464691162, -0.6554805636405945, 1.9575940370559692], [0.8609185218811035, 0.9041761159896851, 4.981796741485596], [0.08528608083724976, -1.1572163105010986, 0.9633294939994812]], [[1.2340236902236938, 0.8609675765037537, -1.7789117097854614], [1.6300277709960938, -0.11429128795862198, -1.9675323963165283], [2.8287460803985596, -0.5868451595306396, -0.6925358176231384]], [[-0.886681079864502, 1.6758742332458496, -0.5907305479049683], [-0.706149697303772, -1.0951322317123413, 1.8470959663391113], [0.14564232528209686, -1.8782360553741455, 0.4839828312397003]], [[0.11758790910243988, 0.5269428491592407, 0.25272223353385925], [1.1747475862503052, -0.5038998126983643, 1.5973539352416992], [1.0684417486190796, -1.305500864982605, -0.15661098062992096]], [[0.5573734045028687, -0.39440569281578064, -0.7853373289108276], [1.789115309715271, 0.5565849542617798, -3.6004457473754883], [3.8766965866088867, 2.086650848388672, -2.0911693572998047]], [[-0.13601063191890717, -0.8866821527481079, 3.5811867713928223], [2.2844128608703613, 1.2980518341064453, 2.778087854385376], [-0.7162002921104431, -1.7399224042892456, -1.2043274641036987]], [[0.500878632068634, -0.2941530644893646, 5.745119571685791], [-0.8651461601257324, -2.2407617568969727, -0.9182610511779785], [-0.08709251880645752, 1.2985725402832031, 0.48670774698257446]], [[-1.0800883769989014, 0.8875263929367065, -1.6978116035461426], [1.544994831085205, -0.013685711659491062, 1.1138967275619507], [1.2715246677398682, -0.8461313247680664, -0.2390812486410141]], [[-2.4603428840637207, -0.8287076354026794, 1.8032146692276], [0.7858922481536865, 0.9673583507537842, 5.05220365524292], [0.20762735605239868, -1.1261727809906006, 1.2131179571151733]], [[2.6808199882507324, 1.7531508207321167, -4.540468692779541], [2.3614659309387207, 0.06162466108798981, -3.2979023456573486], [1.4218065738677979, 0.48765355348587036, -0.3401838541030884]], [[-1.9024163484573364, 0.35333409905433655, -1.4020122289657593], [-0.5627219080924988, -1.358562707901001, 1.661460280418396], [0.7636979222297668, -1.8006036281585693, 0.09640758484601974]], [[-0.3501099646091461, -0.16051852703094482, 0.04314204305410385], [0.11302348971366882, -0.6252793073654175, 0.9771633744239807], [-0.34127357602119446, -1.2326045036315918, -0.2866104543209076]], [[0.6739425659179688, 0.02428678423166275, -3.220543622970581], [0.47028934955596924, -1.0839561223983765, -0.9166768789291382], [0.4650779664516449, 0.15150681138038635, 1.1248595714569092]], [[-0.7003999352455139, -4.359299182891846, 1.0244688987731934], [-0.08080600202083588, -1.7045191526412964, -0.030562853440642357], [-1.0448733568191528, -0.881018877029419, 0.03269793465733528]], [[1.0157511234283447, 0.13469001650810242, 3.7515652179718018], [0.14895091950893402, -0.7167017459869385, -3.507728338241577], [1.8114891052246094, 1.7260260581970215, -2.0506746768951416]], [[-0.7060980796813965, -0.990066647529602, -1.835867166519165], [0.9208266139030457, 0.09944415837526321, -3.0249276161193848], [3.5639379024505615, 2.003755569458008, -1.8272260427474976]], [[-3.1427242755889893, -0.6644546985626221, -0.7440446019172668], [-0.4072219729423523, -0.7715346217155457, 2.8205902576446533], [0.9704122543334961, -1.020633339881897, 0.8929481506347656]], [[0.32038864493370056, 2.437692642211914, -1.706998348236084], [-0.010240654461085796, -0.7299124598503113, 0.014353593811392784], [-0.13863831758499146, -2.2893826961517334, -0.9494495391845703]], [[-0.6832573413848877, -4.7233991622924805, 2.2184133529663086], [-0.25119924545288086, -2.3782169818878174, -0.14614450931549072], [-1.2956849336624146, -1.9543216228485107, -0.43668094277381897]]], [[[1.8904956579208374, 1.1170583963394165, 0.8531231880187988], [-2.1378884315490723, -1.1948318481445312, 0.21210303902626038], [-0.8584308624267578, -1.5640356540679932, 0.7420112490653992]], [[4.304475784301758, 3.3305273056030273, 1.6573808193206787], [-1.3660414218902588, -0.9249255061149597, -0.2059466540813446], [-0.15411050617694855, -1.7690927982330322, 0.6800916790962219]], [[0.6614023447036743, -0.8034363985061646, 1.2160884141921997], [2.3754560947418213, -2.445904493331909, -0.7761098146438599], [2.99391770362854, -2.0743942260742188, -0.8342902660369873]], [[0.4590611755847931, 0.6172136664390564, 1.9148606061935425], [-1.5956616401672363, -0.4790355861186981, 1.0490918159484863], [0.5196936726570129, -0.2804759740829468, 1.785853385925293]], [[-1.9349247217178345, -0.569523274898529, 1.5489248037338257], [2.709703207015991, 0.9813746213912964, 0.8987632393836975], [0.9516034126281738, 0.9897137880325317, 1.7944731712341309]], [[0.27892759442329407, -1.0010802745819092, -0.1446848064661026], [-0.7242279052734375, -0.8432596921920776, -0.9949272274971008], [0.07294430583715439, -0.22689874470233917, -0.6167483329772949]], [[-1.6531096696853638, 1.2057015895843506, 4.808455467224121], [-5.306325912475586, -1.8079441785812378, 3.078765392303467], [0.2906883955001831, 2.324024200439453, 4.787714958190918]], [[-0.4857478439807892, 0.8208953142166138, 2.393817901611328], [2.7445812225341797, 1.7081577777862549, -0.3777928054332733], [1.4401607513427734, 1.3358696699142456, 0.07736707478761673]], [[-0.2923905551433563, 1.4150303602218628, 2.473752737045288], [2.9986352920532227, 2.261251449584961, -0.6197642683982849], [1.6782156229019165, 1.9617629051208496, -0.15360739827156067]], [[5.068284511566162, 0.34488484263420105, -0.951737642288208], [1.1018567085266113, 3.299298048019409, -1.320155143737793], [-1.6019017696380615, 3.446218729019165, -1.8634103536605835]], [[4.104085445404053, -0.10906867682933807, -1.1246055364608765], [0.4345993995666504, 2.5319015979766846, -1.963266372680664], [-1.4919118881225586, 2.6347527503967285, -2.520406484603882]], [[-2.0955617427825928, -0.30814334750175476, 1.9574357271194458], [-0.5958440899848938, -0.6702937483787537, 0.311058908700943], [1.924324870109558, 2.604755163192749, 2.523561954498291]], [[4.220436096191406, -0.6501014232635498, -1.536693811416626], [0.28167444467544556, 2.116729497909546, -1.919358491897583], [-1.4758156538009644, 2.6030452251434326, -2.437267541885376]], [[-0.3219480514526367, 0.08382081240415573, 1.2119756937026978], [2.684643507003784, 0.8677648901939392, -0.3274359405040741], [0.510456919670105, 0.014018644578754902, -0.26180651783943176]], [[2.5792620182037354, 1.7213134765625, 1.1413477659225464], [-1.9845895767211914, -2.202924966812134, -0.45593541860580444], [-0.42265191674232483, -2.910222291946411, 0.28712424635887146]], [[1.5058531761169434, -0.28813931345939636, -0.44563260674476624], [0.024446070194244385, 0.5675297975540161, -0.9226095676422119], [0.48727813363075256, 0.8214992880821228, -0.22577691078186035]], [[0.05674183368682861, -0.6430382132530212, 3.2599270343780518], [0.1963922530412674, -2.9756531715393066, 0.8238033056259155], [1.9687284231185913, -2.1564488410949707, 0.32038697600364685]], [[-1.595709204673767, -0.5509759783744812, 1.9111926555633545], [0.29839345812797546, -0.48272883892059326, 1.0978163480758667], [0.5975301861763, 0.7219696640968323, 1.8186691999435425]], [[1.0030062198638916, 0.45105841755867004, 1.8212066888809204], [-2.3185949325561523, -2.866380214691162, 0.5533422231674194], [-0.5365793704986572, -2.2976715564727783, 2.0353646278381348]], [[-2.2734463214874268, -0.3708973824977875, 2.921304702758789], [-1.5625532865524292, -0.41245681047439575, 2.672926902770996], [1.0689105987548828, 1.6702320575714111, 4.009698390960693]], [[0.10353666543960571, 1.3219506740570068, 1.5641433000564575], [4.814998626708984, 3.1523563861846924, 0.5317264795303345], [1.8017104864120483, 1.9870994091033936, 1.1729841232299805]], [[-3.770012617111206, -2.1557416915893555, 0.9054226279258728], [1.3227922916412354, -0.14407184720039368, 0.2923126220703125], [2.0321767330169678, 2.181765556335449, 2.6978306770324707]], [[-1.9930988550186157, -0.8475037217140198, 3.782092571258545], [-4.633909225463867, -3.0416202545166016, 3.242910623550415], [0.37307536602020264, 0.5748289823532104, 4.363271236419678]], [[-0.4290112853050232, 0.23176485300064087, 1.3888980150222778], [4.311378002166748, 1.9145277738571167, -0.2374580204486847], [1.4056981801986694, 1.7377197742462158, 0.29053086042404175]], [[0.59686678647995, -0.6202641129493713, 1.414771318435669], [2.2290380001068115, -2.489680051803589, -0.8263000845909119], [2.693960428237915, -2.480128765106201, -1.0705991983413696]], [[4.712104320526123, 1.4413563013076782, -1.9050652980804443], [-1.0939955711364746, 0.8859565258026123, -1.5594877004623413], [-0.4974859654903412, 1.4947270154953003, 1.0546326637268066]], [[1.6397920846939087, -0.8475607633590698, -1.091052532196045], [2.194701671600342, -0.36139875650405884, -2.2149789333343506], [2.35025954246521, 0.8178741335868835, -1.5834460258483887]], [[-2.2611451148986816, -0.31516435742378235, 2.6832098960876465], [-3.569744825363159, -1.6577831506729126, 1.5544497966766357], [1.0773999691009521, 1.95127272605896, 3.0399372577667236]], [[-1.578169584274292, -1.3524281978607178, 1.5315064191818237], [1.0134174823760986, -0.7366876602172852, 0.926925778388977], [0.7857675552368164, -0.480777770280838, 1.0513676404953003]], [[-0.18635039031505585, -0.7467035055160522, 0.4112279415130615], [1.1790584325790405, 0.41624343395233154, -0.08491720259189606], [0.9686046838760376, 0.9638219475746155, 0.23537646234035492]], [[-0.6475147008895874, 0.5034230351448059, 2.9663727283477783], [-3.236473560333252, -0.7669171690940857, 3.3865268230438232], [-1.9347971677780151, 0.25917956233024597, 3.8228113651275635]], [[2.7543327808380127, -0.5955989360809326, -1.9095932245254517], [0.6545110940933228, 1.119616985321045, -1.2379273176193237], [1.083043098449707, 1.982340931892395, 0.040200427174568176]], [[5.515887260437012, 2.3762013912200928, -1.7471975088119507], [-0.19546206295490265, 0.8127654790878296, -1.6940619945526123], [-0.5403162837028503, -0.13974204659461975, 0.9554804563522339]], [[0.634315013885498, -1.4148799180984497, 3.161795139312744], [-0.5942103862762451, -3.5080368518829346, 1.0351136922836304], [0.8174490332603455, -2.6686341762542725, -0.4101431667804718]], [[1.488500952720642, -0.9512006640434265, -1.2324073314666748], [2.2010841369628906, -0.5255909562110901, -2.4163289070129395], [2.299738883972168, 0.6208984851837158, -1.843900442123413]], [[-1.8282341957092285, 0.1313691884279251, 3.9231979846954346], [0.16849581897258759, 0.6382654309272766, 1.3119192123413086], [0.48483189940452576, 0.7417720556259155, 1.6368008852005005]], [[0.21104592084884644, -0.11624853312969208, 1.1663810014724731], [3.3386120796203613, 1.3234926462173462, 0.20545145869255066], [0.29268747568130493, 0.364690899848938, -0.49816492199897766]], [[0.9765501618385315, 0.14133122563362122, 1.0464073419570923], [0.6084166765213013, 0.9532470703125, 0.06269865483045578], [0.25465843081474304, 1.2393642663955688, -0.11150164157152176]], [[0.643963098526001, 0.10451357066631317, 2.1103265285491943], [1.464827060699463, 1.0299956798553467, -1.345863938331604], [-1.5159847736358643, 0.38396745920181274, -2.942426919937134]], [[3.394509792327881, -1.695305347442627, -1.3958837985992432], [0.37998828291893005, 1.3550126552581787, -1.5269943475723267], [-1.6554912328720093, 1.9486863613128662, -2.293612241744995]], [[1.148052453994751, 1.1159100532531738, 0.6513056755065918], [-3.237020254135132, -0.0040821777656674385, 1.8198734521865845], [-3.23697829246521, -0.011204266920685768, 3.0332045555114746]], [[-1.1955296993255615, -0.3276357054710388, 2.0493929386138916], [-3.3340444564819336, -2.7779417037963867, 1.3239940404891968], [0.01715799607336521, -0.4657684862613678, 2.7976877689361572]], [[0.41860511898994446, -0.36499035358428955, 2.377962589263916], [1.051346778869629, -1.0708274841308594, 0.9129544496536255], [1.284743309020996, -0.698919415473938, -0.17572540044784546]], [[-3.8480224609375, -2.9134035110473633, 1.465867042541504], [0.7749330401420593, -1.2282893657684326, 0.6861674785614014], [2.0452382564544678, 1.5367943048477173, 2.8496034145355225]], [[4.593721866607666, -0.43456995487213135, -1.7114442586898804], [0.3377304971218109, 2.64652681350708, -1.706063985824585], [-1.6319957971572876, 3.1334900856018066, -1.8727717399597168]]], [[[-0.059751447290182114, -0.02023904211819172, -0.08366754651069641], [-0.07420641928911209, -0.02835463546216488, -0.07628154009580612], [-0.013132788240909576, -0.07943014800548553, -0.061753567308187485]], [[-0.07174831628799438, -0.03768952935934067, -0.04089321568608284], [-0.08639855682849884, -0.027567261829972267, -0.06389269232749939], [-0.07223306596279144, -0.06061418727040291, -0.025189504027366638]], [[0.013879138976335526, -0.0034824111498892307, -0.07486443966627121], [-0.004858002532273531, -0.0869857668876648, -0.10189305245876312], [-0.08600293844938278, -0.10848493129014969, -0.06283018738031387]], [[-0.054901327937841415, -0.07674996554851532, -0.06567540764808655], [-0.060688313096761703, -0.017164424061775208, -0.01637236960232258], [-0.09751111268997192, -0.041379742324352264, -0.040343936532735825]], [[-0.04119664430618286, -0.0685984417796135, -0.053672756999731064], [-0.048545341938734055, -0.012501630000770092, -0.11029930412769318], [-0.07814586162567139, -0.0931718721985817, -0.08567361533641815]], [[-0.01287788711488247, 0.0004186681180726737, -0.08265242725610733], [0.0018956080311909318, -0.00031442291219718754, -0.10791657865047455], [-0.05791103467345238, -0.09822728484869003, -0.07028277963399887]], [[-0.08223196119070053, -0.07995181530714035, -0.09471628069877625], [-0.10091108828783035, -0.020144782960414886, -0.06786386668682098], [-0.061017513275146484, -0.083641417324543, -0.025748955085873604]], [[-0.034326039254665375, -0.03787066787481308, -0.05532725527882576], [-0.06108308583498001, 0.007531804032623768, -0.1086486354470253], [-0.07279273122549057, -0.08775990456342697, -0.06313500553369522]], [[-0.001098283682949841, -0.04989360272884369, 0.04038415104150772], [-0.12561669945716858, -0.0802856981754303, -0.08946375548839569], [-0.054553281515836716, -0.04163214564323425, -0.03691364824771881]], [[-0.07354366034269333, -0.10037729144096375, -0.04664080590009689], [-0.04905281588435173, -0.06557968258857727, -0.09042274206876755], [-0.07763653248548508, -0.03448724001646042, -0.07284324616193771]], [[-0.021442536264657974, -0.05469313636422157, -0.04753085598349571], [-0.04760085418820381, -0.0856681540608406, -0.08442477881908417], [-0.02077876590192318, -0.10412434488534927, -0.08367904275655746]], [[-0.07317931205034256, -0.033896591514348984, -0.021411051973700523], [-0.028673205524683, -0.022403599694371223, -0.1046433225274086], [-0.07678014785051346, -0.05335937812924385, -0.10130967944860458]], [[-0.009153064340353012, -0.05181469768285751, -0.048619344830513], [0.006024396512657404, -0.07734642177820206, -0.043457671999931335], [-0.014613321051001549, -0.06723000854253769, -0.0339125320315361]], [[-0.11092736572027206, -0.1021033376455307, -0.0917336717247963], [-0.06713798642158508, -0.05531614273786545, -0.07847048342227936], [-0.1088695377111435, -0.06751557439565659, -0.026193855330348015]], [[-0.021958360448479652, -0.035465437918901443, -0.05220700800418854], [-0.04777611419558525, -0.09780892729759216, -0.039481982588768005], [-0.10891519486904144, -0.07996700704097748, -0.07176163792610168]], [[0.017911668866872787, -0.03416495397686958, -0.06123194098472595], [-0.016405487433075905, -0.08185651153326035, -0.09652291983366013], [-0.05316372960805893, -0.07532370835542679, -0.08630490303039551]], [[-0.029406066983938217, -0.09738169610500336, -0.08513528108596802], [-0.011876278556883335, -0.04972417280077934, -0.06773041933774948], [-0.03386480361223221, -0.029900578781962395, -0.06698639690876007]], [[-0.0812569409608841, -0.0700293630361557, -0.04599909484386444], [-0.06697261333465576, -0.03225639835000038, -0.10352258384227753], [-0.08367945998907089, -0.02194899134337902, -0.05533533915877342]], [[-0.049778684973716736, -0.044097695499658585, -0.070838563144207], [-0.07960926741361618, -0.045622505247592926, -0.07240008562803268], [-0.07998943328857422, -0.05310317501425743, -0.04673278331756592]], [[-0.08994848281145096, -0.07062798738479614, -0.001372334430925548], [-0.10252605378627777, -0.04176701232790947, -0.1022842675447464], [-0.04047398269176483, -0.044545698910951614, -0.11674124747514725]], [[0.02452715113759041, -0.04605706408619881, 0.008528150618076324], [-0.11309998482465744, -0.12823882699012756, -0.076685830950737], [-0.09577923268079758, -0.04825340211391449, -0.12317939102649689]], [[-0.04332713410258293, -0.03794415667653084, -0.03901134803891182], [-0.0853847935795784, -0.09539181739091873, -0.09569866210222244], [-0.037383485585451126, -0.0921994224190712, -0.07398838549852371]], [[-0.06698517501354218, -0.051733214408159256, -0.1018262580037117], [-0.01979069598019123, -0.09588591754436493, -0.012632643803954124], [-0.07880151271820068, -0.08136621117591858, -0.06630952656269073]], [[-0.0018605407094582915, -0.03364799916744232, -0.0675160214304924], [0.0050962697714567184, 0.0036258099135011435, -0.05266197398304939], [-0.01706920564174652, -0.05741109699010849, -0.08285897970199585]], [[-0.10375557094812393, -0.11023341864347458, -0.09528925269842148], [-0.07649026811122894, -0.03437914699316025, -0.08053097128868103], [-0.06320446729660034, -0.06090933829545975, -0.09193658828735352]], [[-0.034241870045661926, -0.032954901456832886, -0.008768846280872822], [0.0036027440801262856, -0.08308159559965134, -0.08106794208288193], [-0.04773329570889473, -0.08513983339071274, -0.1036188006401062]], [[-0.0015774257481098175, -0.036505505442619324, -0.07927166670560837], [-0.023997414857149124, -0.06417165696620941, -0.05771550536155701], [-0.11364667862653732, -0.059305962175130844, -0.0505283959209919]], [[-0.06817048043012619, -0.09010825306177139, -0.02255084551870823], [-0.03790263459086418, -0.047074511647224426, -0.05033799633383751], [-0.05875882878899574, -0.031451836228370667, -0.07179106026887894]], [[-0.08867499977350235, -0.04108694940805435, -0.04773281142115593], [-0.04102247953414917, -0.06498745828866959, -0.06673020124435425], [-0.06330734491348267, -0.046502526849508286, -0.09722473472356796]], [[-0.05718977376818657, -0.004708506632596254, -0.058040887117385864], [-0.026266910135746002, -0.025769196450710297, -0.07267363369464874], [-0.03343644738197327, -0.06490433216094971, -0.06945935636758804]], [[-0.06373348832130432, -0.05326365306973457, -0.04314747825264931], [-0.026002127677202225, -0.10627518594264984, -0.08217054605484009], [-0.1039164587855339, -0.07889280468225479, -0.030026303604245186]], [[-0.08037019520998001, -0.1188119649887085, -0.041864681988954544], [-0.0652928501367569, -0.03188030421733856, -0.06850412487983704], [-0.05508871376514435, -0.02904662862420082, -0.12255660444498062]], [[-0.02874048985540867, -0.04954979568719864, -0.09399633854627609], [-0.05321721360087395, -0.0784391462802887, -0.08290094137191772], [-0.0676075741648674, -0.08625376969575882, -0.01980973221361637]], [[-0.01699954830110073, -0.06510581076145172, -0.10519462078809738], [-0.062489140778779984, -0.05622929707169533, -0.028248878195881844], [-0.057968754321336746, -0.044985536485910416, -0.04693420231342316]], [[-0.05638907849788666, -0.029859572649002075, -0.07279745489358902], [-0.08195159584283829, -0.07034003734588623, -0.075520820915699], [-0.0182629507035017, -0.07845710963010788, -0.11584565043449402]], [[0.0056927865371108055, -0.02714400924742222, -0.04232640936970711], [0.023373352363705635, -0.03893110156059265, -0.041124455630779266], [-0.0062227072194218636, -0.02507646195590496, -0.04785118252038956]], [[-0.043925631791353226, -0.01729963906109333, -0.0013069319538772106], [-0.015009003691375256, -0.1231163963675499, -0.08428560942411423], [-0.078279510140419, -0.04220917820930481, -0.0646992027759552]], [[0.007020993158221245, 0.0028848324436694384, -0.03800533711910248], [-0.025584587827324867, 0.0005316001479513943, -0.11934477835893631], [-0.10147750377655029, -0.06846034526824951, -0.10068564116954803]], [[-0.003382687224075198, 0.019730456173419952, -0.01584453135728836], [-0.06106535345315933, -0.05920283496379852, -0.02806563302874565], [-0.05500230938196182, -0.09465236961841583, -0.05982517451047897]], [[-0.010259940288960934, -0.06857015937566757, 0.020570673048496246], [0.002254957566037774, 0.0058646369725465775, -0.04767966270446777], [-0.06143585219979286, -0.08485754579305649, -0.05362668260931969]], [[-0.06998541951179504, -0.05269157886505127, -0.1097881942987442], [-0.08507267385721207, -0.043352510780096054, -0.0659659281373024], [-0.08408491313457489, -0.10299684852361679, -0.03115255944430828]], [[-0.07074201852083206, -0.11002172529697418, -0.011687824502587318], [-0.036856211721897125, -0.08980464935302734, -0.09641534090042114], [-0.012349508702754974, -0.05942811071872711, -0.08891021460294724]], [[0.011459284462034702, -0.03626183420419693, -0.033301182091236115], [-0.052566926926374435, -0.08311717212200165, -0.11416234076023102], [-0.07086058706045151, -0.1080915778875351, -0.03253708779811859]], [[-0.061027660965919495, -0.08059407770633698, -0.042189501225948334], [-0.10538109391927719, -0.0856347382068634, -0.04163506254553795], [-0.10173270851373672, -0.035081956535577774, -0.05467892438173294]], [[-0.05266764014959335, -0.08219772577285767, -0.00878159236162901], [0.003341490402817726, -0.04759165644645691, -0.12455424666404724], [-0.09455323219299316, -0.06610524654388428, -0.08002481609582901]]], [[[1.3469609022140503, 2.6406326293945312, -1.200884222984314], [-2.337435245513916, -0.7883399724960327, -2.5794878005981445], [0.33001670241355896, 0.941377580165863, -6.246404647827148]], [[-0.08850707113742828, 1.9947766065597534, -4.194148540496826], [-3.7658021450042725, -1.329473614692688, -8.42080020904541], [0.7011523842811584, 2.680036783218384, -5.759300231933594]], [[1.3625433444976807, 2.4939229488372803, -1.7489515542984009], [1.8413920402526855, 1.9001997709274292, -3.822338342666626], [-0.49689602851867676, -0.4464367926120758, -6.210183143615723]], [[-1.199884057044983, 2.5256199836730957, -0.4776737093925476], [1.355625033378601, 3.8739941120147705, -1.0857598781585693], [0.8861935138702393, 2.368455410003662, -5.951223373413086]], [[0.22564369440078735, 0.9642298817634583, -0.4047866463661194], [0.8501613140106201, 1.399906039237976, -1.2092218399047852], [-0.6326807737350464, 0.11400926113128662, -6.919208526611328]], [[-1.2314448356628418, 1.3641904592514038, 0.6445352435112], [-0.33137258887290955, 1.5635321140289307, -0.7334349155426025], [1.2320189476013184, 2.625018358230591, -4.801619529724121]], [[0.6209149956703186, 2.713223695755005, 0.43385183811187744], [-0.7328852415084839, 1.3121064901351929, -1.839574933052063], [0.9503170251846313, 2.125811815261841, -7.0003509521484375]], [[1.622100830078125, 2.6470696926116943, -0.6850116848945618], [0.9418601393699646, 1.083775520324707, -0.899857759475708], [-1.0595026016235352, -0.35681062936782837, -7.384557247161865]], [[1.2149242162704468, 2.9000205993652344, -0.32752561569213867], [0.3550994098186493, 0.7844696044921875, -1.0854829549789429], [-0.3115769028663635, 0.6484582424163818, -7.305561065673828]], [[2.504392147064209, 1.3477733135223389, -0.9240599870681763], [3.105013132095337, 1.4016845226287842, -1.0212759971618652], [-0.5910166501998901, -1.4485148191452026, -7.727190971374512]], [[2.001802682876587, 0.8161271810531616, -0.1668563038110733], [2.447225570678711, 1.0493237972259521, -1.334433913230896], [-0.06322932243347168, -1.8082956075668335, -6.826900005340576]], [[0.11181510984897614, 0.8763744235038757, 0.37416985630989075], [1.6345913410186768, 2.147063732147217, -0.5537692308425903], [0.2618972659111023, -0.172538623213768, -4.194804668426514]], [[1.121254563331604, 0.5268033742904663, -0.01094873994588852], [2.274139404296875, 0.6716229915618896, -1.0400044918060303], [-0.5026465654373169, -1.8273615837097168, -6.177239894866943]], [[0.5970745086669922, 1.1363246440887451, -2.2707228660583496], [0.5264473557472229, 1.4780136346817017, -2.0480222702026367], [0.2345508486032486, 2.3750410079956055, -6.231455326080322]], [[-0.7899161577224731, 1.6844652891159058, -1.7067071199417114], [-3.3904993534088135, -0.5847978591918945, -3.9978067874908447], [-0.676050066947937, 0.9978286623954773, -4.976675987243652]], [[-0.9054068922996521, 0.6392220258712769, -0.3870173990726471], [-0.0528927743434906, 0.8497077226638794, -1.2738813161849976], [1.8059550523757935, 2.421689510345459, -4.640508651733398]], [[0.022776706144213676, 2.5147361755371094, 0.016320891678333282], [0.3488948345184326, 1.9217243194580078, -1.6805540323257446], [-0.760005533695221, 0.8660563230514526, -5.29743766784668]], [[0.3319242596626282, 2.016746997833252, 1.5282106399536133], [0.9946049451828003, 1.9978388547897339, 0.33345478773117065], [-0.2485680729150772, -0.10888921469449997, -5.079443454742432]], [[-0.9001897573471069, 0.5979498028755188, -1.0061970949172974], [-1.5944780111312866, 0.3331506550312042, -0.9312553405761719], [-0.28581199049949646, 0.36936506628990173, -5.141813278198242]], [[-0.27708229422569275, 1.0834535360336304, -0.28537097573280334], [2.0698397159576416, 3.531804084777832, 1.023877739906311], [-1.4695478677749634, -1.6123440265655518, -7.495558738708496]], [[0.43254896998405457, 1.7596412897109985, -1.5969785451889038], [-0.024955304339528084, 0.41497838497161865, -1.8538655042648315], [-0.7561476826667786, 0.3988257944583893, -7.501973628997803]], [[0.43586671352386475, 0.5117563009262085, -0.9461717009544373], [1.629191279411316, 1.2472299337387085, -1.6526426076889038], [0.34343421459198, -0.6128807067871094, -7.584046840667725]], [[-0.9865798950195312, 0.618226945400238, -1.1274503469467163], [-0.9303841590881348, 0.8611069321632385, -1.9178056716918945], [0.9294444918632507, 1.8631974458694458, -7.293944358825684]], [[0.14787094295024872, 1.0341280698776245, -1.290548324584961], [-0.6897429823875427, -0.2716001868247986, -1.7278693914413452], [-1.612260341644287, 0.3414682149887085, -5.3418049812316895]], [[1.9798593521118164, 3.2802019119262695, -1.429097294807434], [2.3750994205474854, 2.3939366340637207, -3.878039598464966], [-0.10322444885969162, 0.03459550440311432, -6.427759647369385]], [[0.09504082053899765, -0.43520084023475647, -3.4057793617248535], [-2.4047300815582275, -3.243398666381836, -7.577254295349121], [1.6479626893997192, 1.1576913595199585, -6.04982328414917]], [[-1.7373296022415161, 0.3013366460800171, 0.15609626471996307], [-0.8091931343078613, 1.1916182041168213, -0.6020525693893433], [-0.7722528576850891, 1.560325264930725, -5.312870025634766]], [[0.7469756603240967, 1.9825056791305542, 0.08080647140741348], [-0.611691951751709, 0.9136531949043274, -1.4082884788513184], [1.72772216796875, 2.414428472518921, -5.8126420974731445]], [[0.31707462668418884, 1.09149968624115, 0.2733960747718811], [1.4699651002883911, 1.797101616859436, 0.07349183410406113], [-0.6045413613319397, -0.21368269622325897, -4.618768692016602]], [[-1.9852186441421509, -1.4447904825210571, -3.1760478019714355], [0.24458593130111694, 0.7953199148178101, -1.9574589729309082], [-0.15163792669773102, 1.943034291267395, -5.897421836853027]], [[-0.06953959912061691, 0.7337454557418823, -0.6075219511985779], [0.9654367566108704, 2.1442198753356934, 0.604363739490509], [-1.700505256652832, -1.9718385934829712, -6.66103458404541]], [[-1.5097519159317017, -0.48031702637672424, -1.1751148700714111], [-0.8176628947257996, -0.02046213299036026, -2.7937448024749756], [2.303481340408325, 2.2576844692230225, -5.484226226806641]], [[-0.6436479091644287, -0.3599647879600525, -6.0730767250061035], [-4.025088310241699, -3.9894399642944336, -10.0764799118042], [0.8708342909812927, 1.2904012203216553, -6.282855987548828]], [[0.35884296894073486, 1.2881505489349365, 0.00385186611674726], [0.6964197158813477, 0.36659491062164307, -2.652574300765991], [1.0353292226791382, 1.1620054244995117, -5.773365497589111]], [[-2.2017781734466553, 0.07853647321462631, -0.03555632010102272], [-1.1147099733352661, 0.9504970908164978, -0.9221136569976807], [-1.328228235244751, 0.9898207187652588, -5.509035587310791]], [[-0.039214763790369034, 2.0550928115844727, -0.9864072203636169], [0.8054783344268799, 2.301964044570923, -0.5153513550758362], [-1.3497477769851685, 0.40481501817703247, -6.186581134796143]], [[0.02472359500825405, 0.7180692553520203, -1.6998569965362549], [0.8216133713722229, 0.7243263721466064, -1.4644901752471924], [-0.5599276423454285, 1.588707685470581, -5.624290466308594]], [[-0.9975219964981079, -0.10862834751605988, -0.7420101165771484], [1.1412837505340576, 2.208700180053711, -0.33839112520217896], [-0.3118760883808136, 2.4196133613586426, -4.6991448402404785]], [[1.18796968460083, 1.151631474494934, -1.0029081106185913], [1.054339051246643, 0.8056592345237732, -0.6668015122413635], [-0.3961246609687805, 0.5588371157646179, -6.516180992126465]], [[2.2290008068084717, 0.7197180390357971, -0.08673615753650665], [2.493834972381592, 0.8126644492149353, -0.5997912287712097], [-0.026862656697630882, -1.6307705640792847, -5.667243003845215]], [[-0.40109017491340637, 0.05231882631778717, -0.8965563774108887], [-1.0115052461624146, -0.017018500715494156, -0.2382173240184784], [-1.6368411779403687, -1.973307490348816, -6.944278717041016]], [[0.16704604029655457, 1.2603919506072998, -0.8323743939399719], [-0.16880612075328827, 1.3236849308013916, -0.521107017993927], [-0.6892524361610413, -0.5535641312599182, -6.19624137878418]], [[-0.8054774403572083, 0.6330590844154358, 0.8935617208480835], [0.5188899636268616, 0.7716996669769287, -0.2403106391429901], [-1.7839239835739136, -1.6034477949142456, -4.1801605224609375]], [[-0.17105546593666077, 0.08878269046545029, -1.535937786102295], [1.2630749940872192, 0.9176770448684692, -2.3181703090667725], [0.41860026121139526, -0.3874470293521881, -6.487429618835449]], [[1.7292711734771729, 0.06429261714220047, -0.2624899744987488], [2.1461598873138428, 0.24585144221782684, -0.7752410173416138], [-0.15805503726005554, -2.0370678901672363, -6.444443225860596]]], [[[-0.030927542597055435, -0.04820374771952629, -0.0003113691054750234], [-0.0688590332865715, -0.07656944543123245, -0.052933886647224426], [-0.10878739506006241, -0.12106618285179138, -0.07823199778795242]], [[-0.043783292174339294, -0.09590885043144226, -0.06345346570014954], [-0.0334855392575264, -0.07430709898471832, -0.11376583576202393], [-0.08348739892244339, -0.056580428034067154, -0.12793873250484467]], [[-0.03140345588326454, -0.06883019208908081, -0.015331069007515907], [0.006229852791875601, -0.06744857877492905, -0.007141383830457926], [-0.017270712181925774, -0.050361212342977524, -0.02081439457833767]], [[-0.09011068940162659, -0.06206604093313217, -0.040132537484169006], [-0.08095674216747284, -0.04396718740463257, -0.12270508706569672], [-0.07892253249883652, -0.09104535728693008, -0.09585724025964737]], [[-0.11474329978227615, -0.13799519836902618, -0.06498203426599503], [-0.07272990792989731, -0.11466114223003387, -0.08547767996788025], [-0.07511002570390701, -0.04489056020975113, -0.10557017475366592]], [[-0.056957926601171494, -0.06583170592784882, -0.02720102295279503], [-0.00433390261605382, -0.01658107154071331, 0.027803674340248108], [-0.05448012426495552, -0.018398068845272064, 0.015923695638775826]], [[-0.15184298157691956, -0.07224714010953903, -0.022301550954580307], [-0.06651940941810608, -0.05108778178691864, -0.07616184651851654], [-0.021488847211003304, -0.06963145732879639, -0.10685952007770538]], [[0.02176310494542122, -0.08890140801668167, -0.015524341724812984], [0.05948710814118385, -0.03547573834657669, 0.0017880897503346205], [0.044092606753110886, -0.10188812017440796, -0.022921161726117134]], [[-0.10796389728784561, -0.0986851304769516, -0.08196422457695007], [-0.0017460485687479377, -0.1158304437994957, -0.015252625569701195], [-0.08351486176252365, -0.08733469247817993, -0.01680607534945011]], [[-0.15658362209796906, -0.06223499774932861, -0.09689117968082428], [-0.03518737107515335, -0.050923556089401245, -0.0847679153084755], [-0.014152747578918934, -0.11286720633506775, -0.10689949244260788]], [[-0.10400678217411041, -0.12488390505313873, -0.015522346831858158], [0.032921940088272095, -0.0767948105931282, -0.0489739254117012], [-0.06004583463072777, -0.07099514454603195, -0.06513737142086029]], [[-0.1051512137055397, -0.12931793928146362, -0.022537805140018463], [-0.034594569355249405, -0.043204814195632935, -0.07203490287065506], [-0.09804482758045197, -0.037257082760334015, -0.060331035405397415]], [[-0.03749115765094757, -0.11539225280284882, -0.06196281313896179], [0.05913449823856354, -0.04487921670079231, -0.04635705053806305], [-0.016069604083895683, -0.10823709517717361, -0.04662781208753586]], [[-0.07133401185274124, -0.13757111132144928, -0.035272128880023956], [0.007802903186529875, -0.07697110623121262, -0.12626619637012482], [-0.023534169420599937, -0.1055486649274826, -0.06745312362909317]], [[-0.0740392729640007, -0.0742579773068428, -0.06823868304491043], [-0.03886660560965538, -0.030788859352469444, -0.04810205101966858], [-0.05603041872382164, -0.03506018593907356, -0.07917632907629013]], [[0.001082156435586512, -0.049957480281591415, -0.09363340586423874], [0.01841041073203087, -0.04618588462471962, -0.039630044251680374], [0.02339927852153778, -0.067973792552948, -0.017646539956331253]], [[-0.04924718663096428, -0.056078922003507614, -0.03006908856332302], [-0.06756891310214996, -0.1153615415096283, -0.12423380464315414], [-0.044399723410606384, -0.06022629141807556, -0.10125750303268433]], [[-0.08989289402961731, -0.05131447687745094, -0.038773518055677414], [-0.07923492789268494, -0.06965700536966324, -0.11095067858695984], [-0.037345778197050095, -0.10561390221118927, -0.047555603086948395]], [[-0.06554868817329407, -0.0986533910036087, -0.049981601536273956], [-0.07404261082410812, -0.07132735848426819, -0.10066848248243332], [-0.023113761097192764, -0.03297988325357437, -0.12937447428703308]], [[-0.10315797477960587, -0.06200059875845909, -0.014255573973059654], [-0.08896560966968536, -0.021464956924319267, -0.05864620581269264], [-0.11248138546943665, -0.026005202904343605, -0.10785334557294846]], [[-0.0009655621252022684, -0.03925016522407532, -0.08404738456010818], [-0.014578580856323242, -0.0014831827720627189, -0.04118610918521881], [-0.04881707578897476, -0.04621165618300438, -0.05891481786966324]], [[-0.07738017290830612, -0.10174887627363205, -0.021461335942149162], [-0.11393475532531738, -0.026482580229640007, -0.10397817194461823], [-0.07004643976688385, -0.056056782603263855, -0.05737761780619621]], [[-0.09927524626255035, -0.09513641148805618, -0.0229055006057024], [-0.08634362369775772, -0.11798326671123505, -0.05600016564130783], [-0.09145168960094452, -0.07887743413448334, -0.07744797319173813]], [[-0.05274456366896629, -0.11199280619621277, -0.07298071682453156], [-0.012797065079212189, -0.008927229791879654, -0.013430836610496044], [-0.05148599296808243, -0.10420873761177063, -0.024032892659306526]], [[-0.036810725927352905, -0.08558985590934753, 0.012003184296190739], [-0.010594049468636513, -0.04879998788237572, -0.07800676673650742], [-0.03040510043501854, -0.05695263296365738, -0.09226909279823303]], [[0.06480973213911057, -0.0840984359383583, -0.021954499185085297], [0.014450711198151112, -0.08355936408042908, 0.009034915827214718], [0.07019898295402527, -0.0837421640753746, -0.008131234906613827]], [[-0.0414220429956913, -0.06109311431646347, -0.0027151338290423155], [0.003780693979933858, -0.010239267721772194, -0.07411829382181168], [-0.06884238123893738, -0.030166277661919594, -0.05424091964960098]], [[-0.08625517040491104, -0.10377795994281769, -0.046545129269361496], [-0.041999123990535736, -0.0652642697095871, -0.04788368195295334], [-0.06300636380910873, -0.04246910661458969, -0.07510363310575485]], [[-0.09778699278831482, -0.12665525078773499, -0.02022795006632805], [-0.07645080238580704, -0.03783806413412094, -0.04906978830695152], [-0.06377454102039337, -0.09849556535482407, -0.06911526620388031]], [[-0.05146234855055809, -0.07532700896263123, -0.07427762448787689], [0.05747172236442566, -0.08339760452508926, -0.036214351654052734], [0.009036394767463207, -0.05714234337210655, 0.013493919745087624]], [[-0.09024976193904877, -0.09210678189992905, -0.0019059942569583654], [-0.044697754085063934, -0.05047067999839783, -0.10677540302276611], [-0.09176924079656601, -0.09474710375070572, -0.07088030874729156]], [[-0.03306504711508751, -0.0931578204035759, -0.046012114733457565], [-0.018204383552074432, 0.01608511619269848, -0.03680262342095375], [0.017693649977445602, -0.09776909649372101, -0.044100672006607056]], [[-0.0455886572599411, 0.00888165831565857, -0.041418612003326416], [-0.02028912864625454, -0.04678740352392197, 0.015631582587957382], [-0.011142805218696594, -0.07594943046569824, -0.049005113542079926]], [[-0.08130020648241043, -0.09933305531740189, -0.041481804102659225], [-0.04214046522974968, -0.06681298464536667, -0.08054656535387039], [-0.11570348590612411, -0.05120929703116417, -0.09402666985988617]], [[-0.0577448271214962, -0.03949747234582901, -0.01379997655749321], [-0.07818956673145294, -0.09626161307096481, -0.07214578986167908], [-0.07132753729820251, -0.10917806625366211, -0.092190682888031]], [[-0.0033510124776512384, -0.10260339081287384, -0.11961451172828674], [0.008322053588926792, -0.07878179848194122, -0.10478144884109497], [0.08031651377677917, -0.06817273795604706, -0.12639358639717102]], [[-0.12309347093105316, -0.04841405153274536, -0.06398691982030869], [-0.05908418819308281, -0.028111616149544716, -0.05627072602510452], [-0.060269247740507126, -0.05286039784550667, -0.061828505247831345]], [[-0.06737392395734787, -0.06321881711483002, -0.08259127289056778], [0.019941361621022224, -0.028367020189762115, -0.05057573691010475], [0.02782396785914898, -0.1083943247795105, -0.01782647892832756]], [[-0.03411700576543808, -0.07763559371232986, -0.10808924585580826], [0.03329065442085266, -0.026015689596533775, -0.06119828298687935], [0.025034582242369652, -0.09136930853128433, 0.0052918680012226105]], [[-0.05341175198554993, -0.09567734599113464, -0.07668175548315048], [-0.0032742395997047424, -0.03883233666419983, -0.07160160690546036], [0.024066366255283356, -0.048394687473773956, -0.009282211773097515]], [[0.004892155062407255, -0.054001253098249435, -0.009437973611056805], [-0.04090694338083267, -0.11791674792766571, -0.08845112472772598], [-0.07172282785177231, -0.10350002348423004, -0.13743840157985687]], [[-0.08179966360330582, -0.09206833690404892, -0.01774623803794384], [-0.10883808881044388, -0.056389015167951584, -0.05871894583106041], [-0.024331893771886826, -0.019489284604787827, -0.1384306252002716]], [[-0.059469133615493774, -0.10257578641176224, -0.043093010783195496], [0.01342027448117733, -0.018542101606726646, 0.005398580804467201], [-0.002066350309178233, -0.08316489309072495, 0.007799648214131594]], [[-0.04967157542705536, -0.09517320245504379, -0.10509286820888519], [-0.08886376768350601, -0.053567592054605484, -0.06981600821018219], [-0.022082382813096046, -0.03340616077184677, -0.061597518622875214]], [[-0.03128226846456528, -0.04753456264734268, -0.07148444652557373], [0.041653458029031754, -0.05576827749609947, -0.021494250744581223], [0.03550192341208458, -0.05102669447660446, -0.0400250218808651]]], [[[-0.07411953806877136, -0.13865329325199127, -0.05716393515467644], [-0.03882000595331192, -0.00640758965164423, -0.10851802676916122], [-0.11477209627628326, -0.04698991775512695, -0.06607619673013687]], [[-0.039622679352760315, -0.0971067026257515, -0.08832868933677673], [-0.012937906198203564, -0.06978009641170502, -0.07094656676054001], [-0.0719631239771843, -0.08034780621528625, -0.10223788768053055]], [[-0.09186216443777084, -0.08281923830509186, -0.14087700843811035], [-0.07113219797611237, -0.08237920701503754, 0.009843588806688786], [-0.001179173937998712, -0.02172461338341236, -0.027294792234897614]], [[-0.1491396576166153, -0.17397214472293854, -0.05790724232792854], [-0.09458790719509125, -0.04842159524559975, -0.06686557829380035], [-0.12400424480438232, -0.11013375967741013, -0.09848896414041519]], [[-0.09290453046560287, -0.06343110650777817, -0.08275218307971954], [-0.028873490169644356, -0.06372510641813278, -0.014650050550699234], [-0.11494990438222885, -0.04818559065461159, -0.10046841204166412]], [[-0.1011124923825264, -0.05347869545221329, -0.13694582879543304], [-0.03290921449661255, -0.07830346375703812, 0.07598263770341873], [0.0024496798869222403, -0.03624344617128372, 0.031893741339445114]], [[0.02883540280163288, -0.10621770471334457, -0.10979753732681274], [-0.020773692056536674, -0.10772961378097534, -0.05733713135123253], [-0.0919717475771904, -0.07400249689817429, -0.09084930270910263]], [[-0.08671895414590836, -0.05370646342635155, -0.019763503223657608], [-0.09057150036096573, -0.055023547261953354, 0.11674841493368149], [-0.02395225688815117, -0.06606617569923401, 0.11458031833171844]], [[-0.04203241318464279, -0.016913902014493942, -0.06828568875789642], [-0.11880216747522354, -0.07383739948272705, -0.05437308922410011], [-0.04024413600564003, -0.10584395378828049, -0.010116063058376312]], [[-0.10519224405288696, -0.03930436819791794, -0.04341855272650719], [-0.05047314986586571, -0.06499124318361282, -0.08594616502523422], [-0.06542087346315384, -0.08864077180624008, -0.15065985918045044]], [[-0.03720707446336746, -0.025193320587277412, -0.07446415722370148], [-0.11552663892507553, -0.10918208211660385, -0.1023961529135704], [-0.03598560765385628, -0.08667869865894318, -0.06870228052139282]], [[-0.03344348073005676, 0.02562902495265007, -0.07255199551582336], [-0.07554734498262405, -0.09302440285682678, -0.10881630331277847], [-0.04822967201471329, -0.08380246162414551, -0.03455661982297897]], [[-0.10373863577842712, -0.059553295373916626, -0.11421722918748856], [-0.025813132524490356, -0.06916973739862442, -0.022726040333509445], [0.035136740654706955, -0.018465103581547737, -0.061787527054548264]], [[-0.05438969284296036, -0.07347860932350159, -0.057571522891521454], [-0.055232398211956024, -0.09312920272350311, -0.13548891246318817], [-0.11503458023071289, -0.0789681002497673, -0.1470177173614502]], [[-0.010589719749987125, -0.18849685788154602, -0.07652857154607773], [-0.08761848509311676, 0.0009618769981898367, -0.13707129657268524], [-0.05274588242173195, -0.06886475533246994, -0.05485222488641739]], [[-0.05710069090127945, -0.06755150854587555, -0.04281159117817879], [-0.07838626950979233, -0.054953448474407196, 0.06654786318540573], [-0.009042935445904732, 0.0039119417779147625, 0.04326281696557999]], [[-0.008573018945753574, -0.0971013754606247, -0.03148209676146507], [-0.03354615345597267, -0.01785903237760067, -0.018108362331986427], [-0.06704379618167877, -0.07499386370182037, -0.10463276505470276]], [[-0.09903217852115631, -0.04027176275849342, -0.07442224025726318], [-0.02253895252943039, -0.04395430535078049, -0.06130644679069519], [-0.04296870157122612, -0.07224796712398529, -0.10965687036514282]], [[-0.04019206389784813, -0.19601526856422424, -0.08255915343761444], [0.01042122021317482, -0.02172999270260334, -0.05009086802601814], [-0.03419909626245499, -0.03364846855401993, -0.016079958528280258]], [[-0.036412522196769714, -0.06469157338142395, -0.012050804682075977], [-0.09029889851808548, -0.03466169536113739, -0.004958937875926495], [-0.09395858645439148, -0.09118149429559708, -0.012469109147787094]], [[-0.07896647602319717, -0.08532266318798065, -0.0490080863237381], [-0.10153190791606903, -0.030703525990247726, 0.0665958821773529], [-0.0823134183883667, -0.03459661453962326, 0.07197295874357224]], [[-0.05155651271343231, -0.09612513333559036, -0.031179821118712425], [-0.06972130388021469, -0.040138211101293564, -0.08618098497390747], [-0.025427771732211113, -0.031859640032052994, -0.16887710988521576]], [[-0.1497894823551178, -0.2123013585805893, -0.03408539667725563], [-0.017809897661209106, -0.06988849490880966, -0.09552406519651413], [-0.04269133880734444, -0.0508827306330204, -0.04807572439312935]], [[-0.06992553919553757, -0.09294576197862625, -0.024389872327446938], [-0.09347208589315414, -0.10400403290987015, 0.04223240166902542], [-0.04493878036737442, -0.01638772152364254, 0.06123392656445503]], [[-0.002242532791569829, -0.12013214826583862, -0.10399841517210007], [0.041454069316387177, -0.09329168498516083, -0.07354724407196045], [-0.0900067612528801, -0.0831187441945076, -0.1491982489824295]], [[-0.09075937420129776, -0.09258794039487839, -0.14968127012252808], [-0.0652829110622406, -0.04793485999107361, 0.01092034112662077], [-0.06487127393484116, -0.07068703323602676, -0.04818208888173103]], [[-0.07138042896986008, -0.10805825144052505, -0.1434851735830307], [-0.08266513794660568, -0.04904475435614586, 0.023945583030581474], [0.007088389713317156, -0.07978310436010361, -0.041837532073259354]], [[-0.15580004453659058, -0.04795415326952934, -0.11535879224538803], [-0.0667768269777298, -0.09120140224695206, -0.10919557511806488], [-0.07080009579658508, -0.09319448471069336, -0.05008132755756378]], [[0.018561381846666336, -0.10458201915025711, -0.07682562619447708], [-0.05754760280251503, -0.08574897050857544, -0.037722617387771606], [-0.06456220895051956, -0.06742298603057861, -0.03869384154677391]], [[-0.0718451663851738, -0.07377909868955612, -0.10335888713598251], [-0.10289741307497025, -0.033656712621450424, 0.03463752195239067], [-0.023756248876452446, -0.04101799055933952, 0.04240024462342262]], [[-0.1625940352678299, -0.12495306134223938, -0.08434049785137177], [-0.04658695310354233, -0.054031383246183395, -0.07516123354434967], [-0.11810032278299332, -0.06484164297580719, -0.025613531470298767]], [[-0.05024220794439316, -0.03174616023898125, -0.135679230093956], [-0.09348850697278976, -0.061944443732500076, 0.00525379553437233], [-0.02111661620438099, -0.04100145399570465, 0.002677011536434293]], [[-0.06757807731628418, -0.2032214105129242, -0.1719963550567627], [0.0009579629404470325, -0.027642130851745605, 0.06092742457985878], [-0.046516694128513336, -0.07496707886457443, -0.1181727945804596]], [[-0.07064418494701385, -0.14969797432422638, -0.1172623261809349], [-0.09093796461820602, -0.0064179552718997, -0.17817777395248413], [-0.0949774757027626, -0.11371777951717377, -0.09331580251455307]], [[-0.0682845488190651, -0.06469020992517471, -0.0970773696899414], [-0.03763711452484131, -0.04662040248513222, -0.06643214821815491], [-0.0322636254131794, -0.05689489096403122, -0.1087462529540062]], [[-0.07318244129419327, -0.015720564872026443, -0.094973623752594], [-0.11509542167186737, -0.10993669182062149, -0.05771482363343239], [-0.127888485789299, -0.09060288965702057, 0.05689267814159393]], [[-0.03949199616909027, -0.03977612033486366, -0.07146480679512024], [-0.10071787238121033, -0.08191434293985367, 0.004907913506031036], [-0.07761915028095245, -0.008906272239983082, 0.0008817219058983028]], [[-0.011510257609188557, -0.09909510612487793, -0.1238786056637764], [-0.012930994853377342, -0.09574247896671295, 0.09345002472400665], [-0.03884141519665718, -0.08436724543571472, 0.07557953894138336]], [[-0.07310432195663452, -0.08134008198976517, -0.10457400232553482], [-0.10546669363975525, -0.04353555291891098, 0.0213638748973608], [-0.0381745882332325, -0.05181097611784935, 0.06167411059141159]], [[-0.07178349792957306, -0.04664817824959755, -0.08662662655115128], [-0.048780445009469986, -0.07418743520975113, -0.04694758355617523], [-0.04103434458374977, -0.0742378979921341, -0.02185852825641632]], [[-0.03513578698039055, -0.11341515928506851, -0.12035474181175232], [0.05969720706343651, -0.04401697963476181, 0.005823138635605574], [-0.04877946525812149, -0.04640490189194679, -0.11019166558980942]], [[-0.09894038736820221, -0.1324659138917923, -0.10765473544597626], [-0.013334241695702076, -0.03978719934821129, -0.12587369978427887], [-0.10500480979681015, -0.08109574764966965, -0.01565137878060341]], [[-0.02859569527208805, -0.018379585817456245, -0.09319963306188583], [-0.043360475450754166, -0.05268142744898796, 0.00880634505301714], [-0.02695288509130478, -0.07108742743730545, 0.014268144965171814]], [[-0.10777685791254044, -0.12428241223096848, -0.05576309561729431], [-0.0664539635181427, -0.05878419056534767, -0.03651127964258194], [-0.08606227487325668, -0.0778244286775589, -0.08744093775749207]], [[-0.08907999098300934, -0.06992870569229126, -0.10598750412464142], [-0.0935056135058403, -0.05756711587309837, 0.04957222566008568], [-0.08401953428983688, -0.009431225247681141, 0.081974558532238]]], [[[-0.2481592893600464, -0.6506614685058594, -0.9670954942703247], [-0.971305251121521, -1.254634976387024, -1.4772589206695557], [0.6186935305595398, 0.6247230768203735, 0.09090906381607056]], [[-2.1530730724334717, -2.722465991973877, -2.3625564575195312], [-4.294853210449219, -4.42134428024292, -3.1407113075256348], [-1.2062510251998901, -0.8918662071228027, -1.2881362438201904]], [[-3.017716646194458, -3.608633518218994, -0.1988936811685562], [-3.392385244369507, -4.4393534660339355, 0.39724668860435486], [-2.894641876220703, -3.3100483417510986, 0.2879798710346222]], [[-0.48516854643821716, -0.7316998839378357, -0.720089316368103], [-0.9998250603675842, -1.1644110679626465, -1.003515601158142], [-1.033299446105957, -0.9399641752243042, -0.9702820181846619]], [[0.062200505286455154, -0.4109363555908203, -0.7173097133636475], [0.5588303208351135, -0.0021930604707449675, -0.12019595503807068], [-1.2162808179855347, -1.328722357749939, -0.6981889009475708]], [[-0.41781315207481384, -0.9189562201499939, -1.248344898223877], [0.5941745042800903, 0.4318809509277344, 0.3324260115623474], [-1.6438127756118774, -1.2221022844314575, -1.4769539833068848]], [[-1.6604504585266113, -2.0107951164245605, -2.4814703464508057], [-0.6135202050209045, -0.8933073878288269, -1.0533281564712524], [-0.11193694174289703, -0.3720899820327759, -0.7561741471290588]], [[-0.9585021734237671, -0.8705466389656067, -1.50201416015625], [0.2690140902996063, 0.15795086324214935, -0.4388308525085449], [-1.2088292837142944, -0.8191596269607544, -0.5301094055175781]], [[-0.7993807792663574, -0.9526559710502625, -1.3890961408615112], [-0.4978620111942291, -0.49931269884109497, -0.8139283657073975], [-2.415123224258423, -1.9024723768234253, -1.2850204706192017]], [[-3.478912115097046, -2.090926170349121, -2.3631434440612793], [-3.812098264694214, -2.836129665374756, -3.673194408416748], [-3.9791669845581055, -2.8692166805267334, -3.1729166507720947]], [[-2.7908151149749756, -1.0620512962341309, -1.4024949073791504], [-2.704087734222412, -1.3824663162231445, -1.7555739879608154], [-3.1801912784576416, -1.48434317111969, -0.8806108236312866]], [[-0.9295133352279663, -1.623298168182373, -1.8414732217788696], [-0.6891945600509644, -1.128339171409607, -1.2706507444381714], [-1.4748814105987549, -2.0608561038970947, -1.6873447895050049]], [[-5.056803226470947, -3.1980478763580322, -2.388054132461548], [-5.777458190917969, -3.692833662033081, -3.3748812675476074], [-5.896502494812012, -3.472716808319092, -2.6368141174316406]], [[0.7418158650398254, 0.31613755226135254, -0.24225664138793945], [1.1737200021743774, 0.6314429044723511, 0.11802646517753601], [0.42683175206184387, -0.10252499580383301, 0.0318075567483902]], [[-0.45385873317718506, -0.9146528840065002, -0.4759981334209442], [-1.6772013902664185, -1.9284985065460205, -1.3038313388824463], [-0.8106074333190918, -0.6243011951446533, -0.6528144478797913]], [[-1.6928237676620483, -2.1021924018859863, -2.399384021759033], [-1.4696815013885498, -1.3487286567687988, -1.2258305549621582], [-3.1147096157073975, -2.659252643585205, -2.8912556171417236]], [[-0.5618355870246887, -1.194310188293457, -0.9020787477493286], [0.04527909308671951, -0.5306771993637085, -0.04558667540550232], [0.13148796558380127, -0.35959118604660034, -0.08126502484083176]], [[-0.4278523325920105, -0.8236856460571289, -1.187883734703064], [0.13696423172950745, -0.5968847870826721, -0.7384171485900879], [0.4032690227031708, -0.28229764103889465, -0.0195118747651577]], [[-0.1464945524930954, -0.6665356755256653, -0.5507150888442993], [-0.5808863639831543, -1.2538362741470337, -1.128106713294983], [0.41698816418647766, 0.14851653575897217, -0.13248561322689056]], [[-0.2324066460132599, -0.9157911539077759, -1.143722414970398], [0.32736140489578247, -0.39946484565734863, -0.6465747952461243], [1.0850075483322144, 0.13572610914707184, 0.07892410457134247]], [[-0.8624229431152344, -1.335591435432434, -1.6146844625473022], [0.27221646904945374, -0.33436092734336853, -0.49942219257354736], [-2.8255953788757324, -3.0851237773895264, -2.334591865539551]], [[-1.3174017667770386, -1.6894605159759521, -1.4463903903961182], [-0.5614500641822815, -1.199086308479309, -0.893836259841919], [-3.3437001705169678, -3.668092966079712, -2.2515034675598145]], [[-0.7360745072364807, -1.2975279092788696, -1.4544763565063477], [-1.651252269744873, -2.1797728538513184, -2.257375717163086], [-0.5418866872787476, -1.0390138626098633, -1.1984851360321045]], [[-0.4510433077812195, -0.5985321998596191, -1.162715196609497], [0.684532105922699, 0.32763299345970154, -0.20386065542697906], [-1.6451239585876465, -1.6362172365188599, -1.8057541847229004]], [[-3.5727646350860596, -4.515315532684326, -0.6875889301300049], [-4.009247303009033, -5.053689002990723, -0.034642577171325684], [-3.649364709854126, -3.6960113048553467, 0.030534004792571068]], [[-0.5484882593154907, -0.6007198691368103, -1.232284426689148], [-1.9435021877288818, -1.3094515800476074, -1.381399154663086], [-0.7741570472717285, -0.14360009133815765, -0.536462664604187]], [[0.04057443514466286, -0.3736507296562195, -1.1478321552276611], [0.7401609420776367, 0.7422184348106384, 0.17680111527442932], [-4.2952680587768555, -3.439640760421753, -3.4690706729888916]], [[-0.7686321139335632, -1.0972644090652466, -1.247273564338684], [-0.10812120884656906, -0.2931661009788513, -0.3400494158267975], [0.7592066526412964, 0.22916440665721893, 0.269485741853714]], [[-0.07099699229001999, -0.6308087110519409, -0.7445881366729736], [0.6002662777900696, -0.3512185513973236, -0.2910447418689728], [0.08093318343162537, -0.8641323447227478, -0.5020142197608948]], [[-0.3337976038455963, -0.6627091765403748, -0.8907032608985901], [-0.6195592880249023, -0.8045070767402649, -1.0321089029312134], [-1.012614130973816, -0.755514919757843, -0.5628715753555298]], [[0.13090123236179352, -0.3943859934806824, -0.6809910535812378], [-0.14650125801563263, -0.5603792071342468, -1.0504597425460815], [1.1344376802444458, 0.6041692495346069, 0.09242453426122665]], [[-1.3492597341537476, -1.766183853149414, -2.5591137409210205], [-1.1463077068328857, -0.7005195617675781, -1.304122805595398], [-3.0107898712158203, -2.52624249458313, -3.057870388031006]], [[-0.9295202493667603, -1.2175536155700684, -1.6216235160827637], [-3.1234400272369385, -2.9175195693969727, -2.7562389373779297], [-1.3415722846984863, -0.9983113408088684, -1.1959487199783325]], [[-1.2122344970703125, -1.1740071773529053, -0.8537676930427551], [-1.0634502172470093, -0.8130784630775452, -0.20503374934196472], [-0.3151484429836273, 0.03431040048599243, -0.04593982547521591]], [[0.19205397367477417, -0.20070524513721466, -0.8632075786590576], [0.9207468628883362, 0.8428398370742798, 0.48312053084373474], [-4.002588748931885, -3.405688762664795, -3.3207991123199463]], [[0.07798741012811661, -0.44912809133529663, -0.849108099937439], [0.3846398890018463, -0.28994306921958923, -0.5698773860931396], [0.059470221400260925, -0.5667974948883057, -0.3075483739376068]], [[0.14014890789985657, -0.20894017815589905, -0.6446171402931213], [0.9331902861595154, 0.4129878878593445, -0.2039877027273178], [-0.6962558627128601, -0.5441775918006897, -0.5460512638092041]], [[-0.9784294366836548, -1.2794500589370728, -1.1102075576782227], [-1.6161012649536133, -1.551613688468933, -1.3320438861846924], [-1.4880285263061523, -1.0418537855148315, -0.8112934827804565]], [[-1.0510841608047485, -0.6004617214202881, -0.5964919924736023], [-1.3117449283599854, -0.5718564987182617, -0.9888142347335815], [-2.582954168319702, -1.0336120128631592, -0.07486242800951004]], [[-2.412562370300293, -1.1740095615386963, -1.1030205488204956], [-2.620140552520752, -0.7333691716194153, -1.129669427871704], [-3.0494906902313232, -1.090307354927063, -0.24682626128196716]], [[0.3485817015171051, -0.11643654853105545, -0.38293254375457764], [-0.4979979991912842, -0.8780427575111389, -1.3182437419891357], [0.011684194207191467, -0.057762231677770615, -0.6008220314979553]], [[-0.3462737202644348, -0.8377424478530884, -0.8637176752090454], [-0.28869661688804626, -1.0291962623596191, -1.1026536226272583], [1.4171923398971558, 0.6680116057395935, 0.3373594284057617]], [[-0.3224934935569763, -0.7023819088935852, -0.5375970602035522], [-0.5370219945907593, -0.8240256905555725, -0.4954024851322174], [-0.24892473220825195, -0.20331814885139465, 0.021150536835193634]], [[-0.45341894030570984, -1.0834882259368896, -0.5974442362785339], [-0.08122999221086502, -0.7486079335212708, -0.2832741141319275], [-2.151902437210083, -2.496497869491577, -1.0837844610214233]], [[-3.426029920578003, -1.7576318979263306, -1.541008472442627], [-4.839682579040527, -3.3492190837860107, -3.0366859436035156], [-4.510815620422363, -2.8889522552490234, -2.0178720951080322]]], [[[0.8674529790878296, 1.3070971965789795, -0.21283218264579773], [-2.3634297847747803, -0.6786553859710693, 1.7727972269058228], [-0.07588497549295425, -1.2056114673614502, -0.9138156771659851]], [[2.0513041019439697, 1.3639899492263794, -2.2286243438720703], [-3.4083452224731445, -1.7427401542663574, -0.20790916681289673], [-0.8780004382133484, -1.554092526435852, -1.7015509605407715]], [[3.590756416320801, 0.3660610020160675, -1.948604702949524], [0.9809979200363159, 3.3600387573242188, -2.8551225662231445], [0.15581609308719635, 3.798441171646118, -1.0956852436065674]], [[1.3019115924835205, 1.058735966682434, -0.44608670473098755], [-0.7223782539367676, 0.21426242589950562, 0.5702431201934814], [-0.5635964274406433, -0.7469838261604309, -0.6497943997383118]], [[-0.5087565779685974, -1.6044973134994507, -0.7782902121543884], [2.3111817836761475, 2.1574547290802, -1.9234368801116943], [-3.280395030975342, -0.9334784746170044, -0.395447313785553]], [[0.17956586182117462, -0.11240047961473465, -1.5541678667068481], [-1.0545068979263306, -0.6145528554916382, 1.7120511531829834], [-0.29021671414375305, -1.2711315155029297, 1.46682870388031]], [[-2.6128180027008057, -0.8590031862258911, 3.0971791744232178], [-2.9501852989196777, -1.0049346685409546, 1.8633341789245605], [0.4552125036716461, 1.4568464756011963, 0.47187769412994385]], [[1.9007049798965454, -0.5018234252929688, -0.8490065336227417], [4.731393337249756, 1.076200246810913, -3.2900142669677734], [-2.8904242515563965, -4.342970371246338, -2.748600482940674]], [[2.0915093421936035, -0.08388721197843552, -1.0156450271606445], [5.658420085906982, 1.2410428524017334, -4.346247673034668], [-2.808682680130005, -4.697096347808838, -3.4258294105529785]], [[4.853114128112793, 2.590287685394287, 2.7820663452148438], [3.831490993499756, 0.3442608714103699, 2.02081298828125], [4.209686279296875, -1.963329553604126, -0.6421234011650085]], [[3.894902467727661, 2.0614571571350098, 2.3647873401641846], [2.818019390106201, -0.9428077936172485, 0.858616292476654], [3.643345832824707, -2.22127366065979, -0.6651437282562256]], [[-1.4024827480316162, -2.3365368843078613, 0.11748231947422028], [1.273370623588562, 1.1739966869354248, -1.230067253112793], [0.15768758952617645, 1.5143731832504272, -0.6004310250282288]], [[4.480632305145264, 2.2056491374969482, 1.7941886186599731], [3.17410945892334, -0.6193447113037109, 1.6146960258483887], [3.6496365070343018, -2.17212176322937, -0.5202205181121826]], [[1.2791813611984253, -0.7197736501693726, -1.0494318008422852], [3.510143995285034, 1.6126083135604858, -2.3855066299438477], [-1.778105616569519, -1.1456066370010376, 0.6700068116188049]], [[1.9504578113555908, 1.0922744274139404, -1.6898152828216553], [-2.3868584632873535, -1.0310653448104858, -0.07883166521787643], [-0.5945497751235962, -0.3130979835987091, -0.7258664965629578]], [[0.6165874600410461, 0.4306698739528656, -2.4186418056488037], [-0.5416317582130432, -0.5357757210731506, 1.9270117282867432], [0.1815115362405777, -1.8337795734405518, 0.771910548210144]], [[0.6161221861839294, -1.682496428489685, -0.5114724040031433], [-1.4424803256988525, 0.7721258401870728, -0.3706423342227936], [-0.0739578977227211, 2.2302842140197754, 0.15125800669193268]], [[-2.126891851425171, -2.6789634227752686, 0.13998016715049744], [-0.2715649902820587, 0.40812188386917114, -0.3643268346786499], [-1.1480064392089844, 0.0904717892408371, 1.6378344297409058]], [[0.5383888483047485, -0.32798734307289124, -0.7467758059501648], [-2.267648220062256, -0.8873142600059509, 0.14243876934051514], [-0.37992119789123535, 0.4694306254386902, -0.2667161226272583]], [[-0.9558230638504028, -0.355377733707428, 1.2912400960922241], [1.783848524093628, 2.518479347229004, 2.388585090637207], [1.2622771263122559, 1.6073248386383057, 1.2158615589141846]], [[1.6225371360778809, -0.643017590045929, -2.23923397064209], [4.470486164093018, 1.6820546388626099, -3.8696060180664062], [-4.573763370513916, -4.243338108062744, -3.1516857147216797]], [[-2.3484256267547607, -2.328756809234619, -1.3986077308654785], [1.6069070100784302, 2.7335636615753174, -1.5581337213516235], [-2.5049149990081787, 0.1285003423690796, -0.9668748378753662]], [[-2.751987934112549, -1.2737133502960205, 1.9557654857635498], [-2.9961934089660645, 0.21519005298614502, 2.5061092376708984], [0.266455739736557, 1.9109176397323608, 0.2945350706577301]], [[0.5671030282974243, -1.5839954614639282, -2.4407129287719727], [2.6374969482421875, 1.1079370975494385, -3.9649977684020996], [-3.867936372756958, -2.569315195083618, -0.44871845841407776]], [[4.324468612670898, 0.7376685738563538, -2.3449900150299072], [1.4320439100265503, 3.184379816055298, -4.057132720947266], [0.42920100688934326, 3.586524248123169, -2.5396974086761475]], [[0.8195903897285461, 1.3297208547592163, -1.3619972467422485], [-1.9670751094818115, -2.5851705074310303, 2.8625500202178955], [0.7996680736541748, -3.4475138187408447, 0.23828190565109253]], [[3.1443591117858887, 0.6515823006629944, -2.113583564758301], [1.4616100788116455, -0.5487635135650635, -0.997492790222168], [1.183489203453064, -1.4061362743377686, 1.0162166357040405]], [[-1.7332711219787598, -1.805641770362854, 0.8076611161231995], [-0.78291916847229, -0.07467865943908691, 0.2558046877384186], [1.2985105514526367, 0.9226841926574707, -0.40636852383613586]], [[0.38526397943496704, -1.542602300643921, 0.2807682752609253], [0.7694663405418396, 1.8851830959320068, -0.7773517966270447], [-1.2856998443603516, 0.42767030000686646, 0.9528604745864868]], [[1.1096876859664917, -0.7619200348854065, -0.9436973333358765], [1.2650012969970703, 0.8768740892410278, 0.10474323481321335], [-1.0700604915618896, -1.614174723625183, 0.9310097694396973]], [[-0.9808191061019897, -0.09742394834756851, 3.048551321029663], [-0.3146432042121887, 0.49892657995224, 3.5888571739196777], [1.515129566192627, 0.8572311997413635, 1.6607152223587036]], [[1.899043321609497, 0.7460537552833557, -1.848662257194519], [0.7194875478744507, -0.548103928565979, 3.1146256923675537], [2.1336426734924316, -1.5625340938568115, 1.674546480178833]], [[2.4141201972961426, 2.0593762397766113, -2.718303918838501], [-2.793346881866455, -3.31646466255188, -0.21636950969696045], [-0.8796725273132324, -4.8112640380859375, -2.204958915710449]], [[0.7357776165008545, 0.3792155086994171, 0.8762516379356384], [-1.8150460720062256, 1.356135606765747, 1.6970696449279785], [-0.6318524479866028, 2.153515577316284, 0.8710399270057678]], [[3.0264925956726074, 0.5323088765144348, -2.3540313243865967], [1.4180346727371216, -0.6591336727142334, -1.4509358406066895], [1.1486985683441162, -1.4645729064941406, 0.8617076873779297]], [[-0.06891002506017685, 0.15378811955451965, 0.5661152601242065], [4.107224464416504, 2.9754583835601807, -0.7967819571495056], [-1.270039677619934, -1.751478910446167, -2.1661269664764404]], [[1.1900219917297363, -1.2472206354141235, -2.2471818923950195], [1.8734427690505981, 1.3470016717910767, -2.467118740081787], [-2.638899326324463, -2.0564956665039062, 0.9770523309707642]], [[1.0730994939804077, -0.13448362052440643, -0.19714845716953278], [0.9674487113952637, 0.468159943819046, 0.688493549823761], [-0.013066000305116177, -1.7064491510391235, 0.9938933253288269]], [[2.3753983974456787, -0.8905565142631531, -0.12009378522634506], [4.158926963806152, 0.20248594880104065, -2.3889589309692383], [-1.0979968309402466, -3.713014841079712, -1.190656304359436]], [[3.6214611530303955, 1.285776972770691, 1.4871134757995605], [3.0199573040008545, -0.42315542697906494, 1.0387576818466187], [2.835005044937134, -2.4844822883605957, -1.007976770401001]], [[0.17842303216457367, 1.1588605642318726, 1.905057668685913], [-1.80769681930542, -1.4038221836090088, 3.7085249423980713], [0.24004970490932465, -1.395200490951538, 0.9103699326515198]], [[-1.333482027053833, -1.401876449584961, 0.5689916014671326], [-1.5743921995162964, -0.09862598031759262, 1.047202467918396], [0.7011523842811584, 2.083467960357666, 0.7491068243980408]], [[-0.007476110477000475, -0.9298454523086548, -0.0992080345749855], [-1.366944670677185, 1.3565634489059448, 0.49276286363601685], [-1.4606208801269531, 0.47877568006515503, 1.0770838260650635]], [[-2.021303176879883, -2.9957735538482666, -0.9060652852058411], [0.5320948362350464, 2.3549327850341797, -1.3383623361587524], [-1.5442403554916382, 1.6195769309997559, 0.050404325127601624]], [[3.8581666946411133, 1.7800520658493042, 1.4812042713165283], [2.5815351009368896, -0.0807764008641243, 2.100660800933838], [3.56412935256958, -2.0371453762054443, -0.39783555269241333]]], [[[-0.021798718720674515, -0.09318814426660538, -0.07198460400104523], [-0.1187002882361412, -0.051004569977521896, -0.07370289415121078], [-0.04256550595164299, -0.0484406054019928, -0.06307917088270187]], [[-0.06297130882740021, -0.05555072799324989, -0.061645686626434326], [-0.09443964064121246, -0.030285140499472618, -0.044779807329177856], [-0.03925638645887375, -0.07095865160226822, -0.03195258602499962]], [[-0.07705534249544144, -0.028193870559334755, -0.1106601431965828], [-0.05135199427604675, -0.06284140795469284, -0.05828176811337471], [-0.026815088465809822, -0.058369606733322144, -0.09793242067098618]], [[-0.07666300237178802, -0.11961237341165543, -0.09614891558885574], [-0.02453865110874176, -0.06496299058198929, -0.11311402171850204], [-0.03357037529349327, -0.09962204843759537, -0.017506608739495277]], [[-0.06924061477184296, -0.03059264086186886, -0.015319309197366238], 